<?xml version="1.0"?>
<opencv_storage>
<DigitOCR type_id="opencv-ml-ann-mlp">
  <layer_sizes type_id="opencv-matrix">
    <rows>1</rows>
    <cols>3</cols>
    <dt>i</dt>
    <data>
      256 16 10</data></layer_sizes>
  <activation_function>SIGMOID_SYM</activation_function>
  <f_param1>5.9999999999999998e-001</f_param1>
  <f_param2>1.</f_param2>
  <min_val>-9.4999999999999996e-001</min_val>
  <max_val>9.4999999999999996e-001</max_val>
  <min_val1>-9.7999999999999998e-001</min_val1>
  <max_val1>9.7999999999999998e-001</max_val1>
  <training_params>
    <train_method>BACKPROP</train_method>
    <dw_scale>1.0000000000000001e-001</dw_scale>
    <moment_scale>1.0000000000000001e-001</moment_scale>
    <term_criteria><epsilon>9.9999999747524271e-007</epsilon>
      <iterations>1000</iterations></term_criteria></training_params>
  <input_scale>
    8.2941396672213532e+000 -8.1717671147541520e+000
    4.6689331320458747e+000 -4.4439058630587454e+000
    3.8735382356909596e+000 -3.5954054902429857e+000
    3.5263320544983014e+000 -3.2153211290359924e+000
    3.2542410605326744e+000 -2.9106785616829951e+000
    3.0177895096104161e+000 -2.6388343023380263e+000
    2.5937174654653501e+000 -2.1225963258365619e+000
    2.0949912182020127e+000 -1.3593402035481257e+000
    2.0231421336881139e+000 -1.1641358834828326e+000
    2.0010758473074999e+000 -9.6773340156674170e-001
    2.0056117056006078e+000 -1.0777697001571791e+000
    2.0122476851607445e+000 -1.1169624035990624e+000
    2.0658623350371714e+000 -1.2916719583330774e+000
    2.1357412308329691e+000 -1.4425006345953826e+000
    2.3088966204771282e+000 -1.7312939577151449e+000
    2.3616433618150086e+000 -1.8087865223606097e+000
    5.6428387145060537e+000 -5.4596777201663489e+000
    4.0211860025721542e+000 -3.7548648312542605e+000
    3.2278909709635415e+000 -2.8807604009713965e+000
    2.4803954605021876e+000 -1.9737441910291178e+000
    2.0862687173321923e+000 -1.3400001368045129e+000
    2.0125437979640637e+000 -1.1184464713275697e+000
    2.0009914381495864e+000 -9.6900470627768498e-001
    2.0128435481538198e+000 -8.9291059693512076e-001
    2.0699141075893674e+000 -7.6824353107907017e-001
    2.1165128272005229e+000 -7.1198103629761855e-001
    2.1862990400334228e+000 -6.5158879586569884e-001
    2.3058837286379403e+000 -5.7911702824152855e-001
    2.4460808837520123e+000 -5.1888994484837769e-001
    2.2344322344322345e+000 -6.1904761904761907e-001
    2.0209474021936766e+000 -8.6536305156227600e-001
    2.0254521040416464e+000 -1.1727699723729663e+000
    5.5620644110746627e+000 -5.3760543881469198e+000
    3.6723433656777540e+000 -3.3761478024132532e+000
    2.3548086942780708e+000 -1.7989194287435755e+000
    2.1285823245302868e+000 -1.4285927928896711e+000
    2.0464287196055095e+000 -1.2399345160101580e+000
    2.0160421930116779e+000 -1.1349326050495248e+000
    2.0086038729303231e+000 -1.0971587056727601e+000
    2.0054157373699417e+000 -1.0763493646146212e+000
    2.0205606550076278e+000 -1.1540382495158319e+000
    2.0348423893889338e+000 -1.2048935590939065e+000
    2.0223307747418757e+000 -1.1610167824829589e+000
    2.0002477213728964e+000 -9.8438420648548108e-001
    2.0458356751656099e+000 -8.0760201734406367e-001
    2.1734675546138438e+000 -6.6130422645299902e-001
    2.2193095873626230e+000 -6.2868310933813321e-001
    2.0008329844998372e+000 -9.7155201640795374e-001
    6.0754440769436915e+000 -5.9061284223403430e+000
    2.7745898540689553e+000 -2.3488495092478829e+000
    2.2078801252041482e+000 -1.5715763120715429e+000
    2.1013998472017548e+000 -1.3731442280239663e+000
    2.0669536122600052e+000 -1.2943873440710196e+000
    2.0513253207755717e+000 -1.2536624255493987e+000
    2.0702893570850525e+000 -1.3025853364741691e+000
    2.1682503416406456e+000 -1.5028463023699425e+000
    2.3425602872816609e+000 -1.7811138708872696e+000
    2.3975320326014686e+000 -1.8598559964377293e+000
    2.2873409638524058e+000 -1.6986318961067866e+000
    2.1396997804587068e+000 -1.4500850643305399e+000
    2.0080008867092114e+000 -1.0935375320734428e+000
    2.0201776748661366e+000 -8.6768287018840617e-001
    2.0990819344977569e+000 -7.3089344735626816e-001
    2.0011193480340990e+000 -9.6709833409910229e-001
    4.8449088567808900e+000 -4.6288735766096760e+000
    2.4140227479263383e+000 -1.8829377433825440e+000
    2.1460702554669102e+000 -1.4621422920853244e+000
    2.0538762450328347e+000 -1.2606086330168742e+000
    2.0503864609812412e+000 -1.2510718701265868e+000
    2.0804577354013487e+000 -1.3267181296247943e+000
    2.2005010261419171e+000 -1.5591090877025189e+000
    2.4127330743995481e+000 -1.8811407380072542e+000
    2.5918989921050275e+000 -2.1202583558367358e+000
    2.6591198190797196e+000 -2.2057616859907183e+000
    2.4658102817301115e+000 -1.9540535904726819e+000
    2.2185338779380022e+000 -1.5893431223916508e+000
    2.0452468247271982e+000 -1.2365361130481813e+000
    2.0000017199699696e+000 -1.0013123365226699e+000
    2.0196102541954053e+000 -8.6942566024871049e-001
    2.0006883422985786e+000 -1.0265827067859918e+000
    4.0877043517046454e+000 -3.8263593193825454e+000
    2.5093032187425348e+000 -2.0123789091948328e+000
    2.1402713019492086e+000 -1.4511741155511355e+000
    2.0772436824634344e+000 -1.3192200042398925e+000
    2.0914419020656441e+000 -1.3515514717938966e+000
    2.1669628365526536e+000 -1.5005329543603949e+000
    2.3780275855356234e+000 -1.8322507626258082e+000
    2.5864775958229034e+000 -2.1132793996035000e+000
    2.7917938835381890e+000 -2.3698211031083183e+000
    2.6570918238190315e+000 -2.2032082696519115e+000
    2.4419543455275781e+000 -1.9215378456610450e+000
    2.1890813524781976e+000 -1.5395342626445030e+000
    2.0269826106001445e+000 -1.1783082519980512e+000
    2.0025543072429648e+000 -1.0518334426895835e+000
    2.0016549408663260e+000 -9.6013809130735572e-001
    2.0290201627678850e+000 -1.1854799770663513e+000
    4.0877043517046454e+000 -3.8263593193825454e+000
    2.5955416514004970e+000 -2.1249401650973905e+000
    2.1701941500306163e+000 -1.5063282018409230e+000
    2.1000051921719032e+000 -1.3701673221056023e+000
    2.1013998472017548e+000 -1.3731442280239663e+000
    2.1514213358580587e+000 -1.4721365009625471e+000
    2.2352487566726298e+000 -1.6167077892524004e+000
    2.2715092085526623e+000 -1.6742140002709458e+000
    2.2528890969665163e+000 -1.6449783668670268e+000
    2.1747888102648427e+000 -1.5145086665582050e+000
    2.0581697904574043e+000 -1.2720164114794121e+000
    2.0028271604515084e+000 -1.0546034162902043e+000
    2.0022328117329327e+000 -9.5385058211408236e-001
    2.0002081485876904e+000 -9.8567634338599952e-001
    2.0145574100634507e+000 -1.1281521496355325e+000
    2.1754520024455504e+000 -1.5156837721956704e+000
    4.2657718148714441e+000 -4.0168185745281271e+000
    2.4284486300573014e+000 -1.9029482707662133e+000
    2.1821789023599236e+000 -1.5275252316519465e+000
    2.1237700563276016e+000 -1.4190961884575910e+000
    2.0788411194648537e+000 -1.3229608566823872e+000
    2.0714220639136154e+000 -1.3053354776531045e+000
    2.1085510765737050e+000 -1.3881870694295082e+000
    2.1185582823883151e+000 -1.4086676054700009e+000
    2.0598706169524821e+000 -1.2764444150951446e+000
    2.0126932180871617e+000 -1.1191894091396153e+000
    2.0069716239298829e+000 -9.1991682959146759e-001
    2.0395867749447909e+000 -8.1984701183026676e-001
    2.0513253207755717e+000 -7.9766289522617306e-001
    2.0034146913605002e+000 -9.4324704812907489e-001
    2.0764521181933109e+000 -1.3173556880996906e+000
    2.3514324058529361e+000 -1.7940272814491089e+000
    3.6454472584699000e+000 -3.3466401061363018e+000
    2.4774446429260308e+000 -1.9697715603592212e+000
    2.1695445353926628e+000 -1.5051659793084833e+000
    2.0655008544352103e+000 -1.2907687306732822e+000
    2.0658623350371714e+000 -1.2916719583330774e+000
    2.1385612638407410e+000 -1.4479111507643050e+000
    2.2169884102239164e+000 -1.5867821965635440e+000
    2.1734675546138438e+000 -1.5121633281608446e+000
    2.1046999559941804e+000 -1.3801311186847083e+000
    2.0281048581906842e+000 -1.1822853894632905e+000
    2.0019330326624303e+000 -9.5698962676125354e-001
    2.0605587125840592e+000 -7.8233671776142322e-001
    2.0990819344977569e+000 -7.3089344735626816e-001
    2.0136088688395879e+000 -8.8994910006418515e-001
    2.0538762450328347e+000 -1.2606086330168742e+000
    2.2377109317681585e+000 -1.6206896551724139e+000
    3.4744080966218309e+000 -3.1577243422412180e+000
    2.4488514529742109e+000 -1.9309795883288450e+000
    2.1631401522554223e+000 -1.4936305444753835e+000
    2.0741058634056442e+000 -1.3117869542654057e+000
    2.1340670937433246e+000 -1.4392708235508258e+000
    2.2911687356609027e+000 -1.7044792987588815e+000
    2.4759756254708885e+000 -1.9677917757840764e+000
    2.3913449913745346e+000 -1.8511362375853364e+000
    2.2360673765680299e+000 -1.6180330164215220e+000
    2.0866929785175086e+000 -1.3409567993096121e+000
    2.0105471324983522e+000 -1.1081081081081081e+000
    2.0062207876510310e+000 -9.2417711693432736e-001
    2.0393145773569992e+000 -8.2040622505476657e-001
    2.0109600646401988e+000 -9.0064637649131529e-001
    2.0039746225990021e+000 -1.0650632338468795e+000
    2.1056547359403379e+000 -1.3821379610991988e+000
    3.1815242032616524e+000 -2.8279056114892915e+000
    2.1801425872301134e+000 -1.5239554085162628e+000
    2.0949912182020127e+000 -1.3593402035481257e+000
    2.1918924267111461e+000 -1.5443858442630338e+000
    2.4153160064497081e+000 -1.8847383919181329e+000
    2.5864775958229034e+000 -2.1132793996035000e+000
    2.4140227479263383e+000 -1.8829377433825440e+000
    2.2678842876898226e+000 -1.6685679808445777e+000
    2.1821789023599236e+000 -1.5275252316519465e+000
    2.1599997800643176e+000 -1.4879211599721742e+000
    2.0945431079550985e+000 -1.3583627106672735e+000
    2.0585077433324757e+000 -1.2729001980082129e+000
    2.0032625749437991e+000 -1.0587735314129194e+000
    2.0006883422985786e+000 -9.7410563551258667e-001
    2.0014984843456487e+000 -1.0394667538372158e+000
    2.0585077433324757e+000 -1.2729001980082129e+000
    2.7322642160875170e+000 -2.2968935901798013e+000
    2.0784399669466898e+000 -1.3220241101234682e+000
    2.0706657651379796e+000 -1.3035010718245643e+000
    2.1904832770897249e+000 -1.5419565888234883e+000
    2.3392817456481843e+000 -1.7763201714495722e+000
    2.3962878242172252e+000 -1.8581051489422091e+000
    2.2989449775300623e+000 -1.7162943324052302e+000
    2.2503103840201857e+000 -1.6408820636265222e+000
    2.2071336717168135e+000 -1.5703213336477002e+000
    2.2426925290994904e+000 -1.6287094924443839e+000
    2.2012304489750827e+000 -1.5603476166177472e+000
    2.0820936531594958e+000 -1.3304919770517565e+000
    2.0094856016557294e+000 -1.1022522660885361e+000
    2.0001100870247366e+000 -1.0105474242967603e+000
    2.0000726725982507e+000 -1.0085612362151180e+000
    2.0568289954186447e+000 -1.2684902755352363e+000
    2.4297821876450172e+000 -1.9047899051341757e+000
    2.0147187075093531e+000 -1.1289030397158966e+000
    2.0153730845616229e+000 -1.1319128176570690e+000
    2.0854238955714206e+000 -1.3380900208633673e+000
    2.1425725492875816e+000 -1.4555443679094653e+000
    2.2760934174377883e+000 -1.6813240883565039e+000
    2.3109184217581120e+000 -1.7343253335751863e+000
    2.3403716848652882e+000 -1.7779151455189746e+000
    2.3593528838948643e+000 -1.8054851249215125e+000
    2.2979640498106075e+000 -1.7148085827439157e+000
    2.1656819899042388e+000 -1.4982259012124404e+000
    2.0561651867095625e+000 -1.2667325855171370e+000
    2.0097455910064532e+000 -1.1037127426019047e+000
    2.0086038729303231e+000 -1.0971587056727601e+000
    2.0170735718187816e+000 -1.1394812341782821e+000
    2.1280418682595204e+000 -1.4275323483472062e+000
    2.6967970779428732e+000 -2.2529308047863741e+000
    2.0250234868168326e+000 -1.1711939117196368e+000
    2.0000004299920762e+000 -1.0006559528419372e+000
    2.0102763522091025e+000 -1.1066406542160927e+000
    2.1018673464461242e+000 -1.3741388487913351e+000
    2.2863902268769123e+000 -1.6971762208686327e+000
    2.5061838467710471e+000 -2.0082338759044061e+000
    2.5171828984757556e+000 -2.0228246833324843e+000
    2.4166128628295853e+000 -1.8865426971794239e+000
    2.2528890969665163e+000 -1.6449783668670268e+000
    2.0748832234243864e+000 -1.3136391817811444e+000
    2.0237606496034255e+000 -1.1664823678697775e+000
    2.0106838744402684e+000 -1.1088427137077153e+000
    2.0231421336881139e+000 -1.1641358834828326e+000
    2.0940962722976462e+000 -1.3573863378139168e+000
    2.3503129908174771e+000 -1.7924026284070333e+000
    3.4800462840068236e+000 -3.1639896214921057e+000
    2.0379688705733532e+000 -1.2147630841647070e+000
    2.0294836714851812e+000 -8.4240207478696372e-001
    2.0109600646401988e+000 -9.0064637649131529e-001
    2.0094856016557294e+000 -1.1022522660885361e+000
    2.0963432186231064e+000 -1.3622794292822940e+000
    2.1502212671883476e+000 -1.4699053580615427e+000
    2.1562848913946504e+000 -1.4811202778596042e+000
    2.0780400112014541e+000 -1.3210883874490558e+000
    2.0196102541954053e+000 -1.1501845939466948e+000
    2.0004684257357281e+000 -1.0218786253430374e+000
    2.0017635768896818e+000 -1.0428860077631819e+000
    2.0039746225990021e+000 -1.0650632338468795e+000
    2.0458356751656099e+000 -1.2382336578215460e+000
    2.2616300945995764e+000 -1.6587759087276237e+000
    3.0077315869339092e+000 -2.6270809664235850e+000
    3.5382425873972818e+000 -3.2285013510579130e+000
    2.1242990195514269e+000 -1.4201461314312653e+000
    2.0018756802169926e+000 -1.0442571171230279e+000
    2.0412414523193152e+000 -8.1649658092772615e-001
    2.0695400149101935e+000 -7.6878322521090137e-001
    2.0379688705733532e+000 -8.2320578640864628e-001
    2.0243877595549891e+000 -8.5555272854635434e-001
    2.0285605608946020e+000 -8.4467931552004738e-001
    2.0340833703515213e+000 -8.3163998781257287e-001
    2.0287898739571495e+000 -8.4410962296774517e-001
    2.0123952871866071e+000 -8.9469115063116045e-001
    2.0003617213276450e+000 -9.8116102790365800e-001
    2.0366485272010211e+000 -1.2106373048575250e+000
    2.2185338779380022e+000 -1.5893431223916508e+000
    3.2192775232707120e+000 -2.8709622502610941e+000
    3.6999308265569382e+000 -3.4063625445809449e+000</input_scale>
  <output_scale>
    5.2631578947368418e-001 4.9999999999999994e-001
    5.2631578947368418e-001 4.9999999999999994e-001
    5.2631578947368418e-001 4.9999999999999994e-001
    5.2631578947368418e-001 4.9999999999999994e-001
    5.2631578947368418e-001 4.9999999999999994e-001
    5.2631578947368418e-001 4.9999999999999994e-001
    5.2631578947368418e-001 4.9999999999999994e-001
    5.2631578947368418e-001 4.9999999999999994e-001
    5.2631578947368418e-001 4.9999999999999994e-001
    5.2631578947368418e-001 4.9999999999999994e-001</output_scale>
  <inv_output_scale>
    1.8999999999999999e+000 -9.4999999999999996e-001
    1.8999999999999999e+000 -9.4999999999999996e-001
    1.8999999999999999e+000 -9.4999999999999996e-001
    1.8999999999999999e+000 -9.4999999999999996e-001
    1.8999999999999999e+000 -9.4999999999999996e-001
    1.8999999999999999e+000 -9.4999999999999996e-001
    1.8999999999999999e+000 -9.4999999999999996e-001
    1.8999999999999999e+000 -9.4999999999999996e-001
    1.8999999999999999e+000 -9.4999999999999996e-001
    1.8999999999999999e+000 -9.4999999999999996e-001</inv_output_scale>
  <weights>
    <_>
      -2.6772287640590769e-001 -2.9883038663541917e-001
      5.0715346734143441e-001 7.4454276105043171e-001
      -8.3733323167176715e-002 2.9324705903984810e-001
      -2.2005892117659737e-001 5.7089439205947239e-003
      6.5606843498597509e-002 3.6715807240991799e-001
      -4.8414626423600442e-002 -3.6571890960091280e-001
      3.9237200156855340e-001 6.2332641970402158e-001
      5.5558323414586253e-001 -9.5302202786273577e-002
      -1.0377045790413091e+000 3.9879423444674995e-002
      -1.7133299700649612e-001 -2.4452642840750671e-001
      1.2692343707475657e+000 -5.8716366119701102e-001
      1.6503700474633021e+000 4.7050361535108592e-001
      -5.4803515972121430e-001 9.3530917674149827e-001
      -9.4605290102457373e-001 5.4951490155008297e-002
      4.3250457026122208e-001 1.1013135421114593e+000
      -1.4317503173975391e-001 -1.8283971438116020e-001
      1.3577464670055672e+000 -7.9064033299992154e-001
      -4.9078564519649920e-001 -1.4929029393368053e-002
      4.7339739039668688e-001 -1.5675630758334586e-001
      9.9143436168846377e-001 1.5964740781456108e-001
      -2.8670617657978403e-001 8.5147408263486235e-001
      -3.7411529083443162e-001 -5.7289598256014790e-002
      1.3981186935054257e-001 2.6565647516863378e-001
      -1.8475193555043269e-002 -3.9970487594967252e-001
      1.9919591276831272e+000 -5.1952473338457406e-001
      5.4560854160821426e-001 9.3932154100244587e-003
      -1.8009937767579556e-001 -2.5474250753286753e-001
      -1.1781478634888574e+000 5.4176374530472571e-001
      -2.2080545623905254e-001 1.1682796458732503e+000
      -7.7226016776468576e-001 3.2814716658274545e-001
      8.7651695536058782e-002 -1.4742574322933204e-002
      -6.1679238718013042e-002 -5.2077028302394046e-001
      2.6852132449450599e+000 -2.4026299041385013e-001
      -2.8531365175156587e-001 -9.6054805118593978e-001
      6.0626644891055592e-001 -3.3125187224442920e-001
      4.6295663168081530e-001 -2.1033011341877109e-001
      3.2623022728575134e-003 4.2593618882472684e-001
      -5.5385872218956567e-001 -1.5224401253280420e-001
      5.3199885547300607e-001 7.5267496243862242e-001
      4.0569429880219171e-001 4.5160128129907148e-002
      -7.3097702232187345e-001 -1.6489918195008535e-001
      7.1050744052403769e-001 -3.2465167416000057e-001
      2.7184091852248626e-001 -5.9923394982281697e-001
      9.2212449824255679e-003 9.8334860086433906e-001
      -4.2840746077478142e-001 5.1499217250303497e-001
      -9.1203628478739684e-001 3.5131623056482231e-001
      -1.1303908517015089e-001 3.6905472659125682e-001
      3.7079768368110722e-001 5.2187340249173646e-002
      1.8331124176240281e+000 3.2561293519406775e-001
      -5.0042110064431267e-001 -2.4389141461308511e-001
      -1.1057963555733502e-001 2.4499479804084218e-001
      -2.0495045774544019e-002 4.4995627484394882e-002
      -4.8943417824700142e-001 4.5238396334508449e-002
      2.3037885174494047e-001 1.7142024134379311e-001
      3.6718774353534717e-001 -4.7355810964796307e-003
      5.5460093631783214e-001 2.3310100809095916e-001
      4.5567219564906578e+000 -2.1901199858810272e-001
      -6.1154781878534925e-001 -1.2113018485247284e+000
      2.3795035296943307e-001 4.1764267474330152e-001
      4.0282281475911375e-001 -6.9386298304807958e-001
      -6.9278277043143976e-001 -9.9391642293658777e-001
      -9.7378850191433414e-002 3.7545117257221045e-001
      -1.3777835781832996e-002 -2.1460280923815309e-001
      -3.2804016320325563e-002 1.8390993441108457e-002
      -2.5787616176662720e-001 5.2460713637266942e-001
      -6.4635063742036891e-001 -1.0809427399742920e-001
      4.7652614270330246e-001 -6.1413625790916726e-001
      -3.3551355635054392e-001 -1.0490281672824856e-003
      -6.6059409514400744e-002 -1.1659524782853512e+000
      -2.3813916139087421e-001 3.1103152658484245e-001
      -2.4762294298005802e-001 4.0833971464690516e-001
      1.6313305407112530e-001 -2.6519024855531048e-001
      -1.2199283603644333e+000 2.4279222042194148e-001
      -1.2085811963686138e-001 -1.3104758590657883e+000
      4.9925893836605534e-001 2.3914906222578181e-001
      -2.8317905168217635e-002 -2.1548036950018681e-001
      9.1134047193955139e-002 -8.0090134066435892e-001
      -1.7765519372654104e-001 -3.4552287048362301e-001
      -3.0317612584040332e-001 -1.5443444483406385e-001
      1.5037989532155130e-001 -1.1634108223155581e-001
      -2.0123572413195245e-002 5.2386091378070820e-002
      -1.6044247779260198e-001 -3.0626190879533222e-001
      -2.2306423659068839e-001 6.1925604100432644e-002
      8.8681431666858457e-001 -3.1497569652788054e-001
      1.9851229993830913e-001 1.9592204052909690e-001
      -1.9369900742476640e-001 1.7614870535048990e-001
      -1.0466729267209592e-002 -9.1139453738331683e-002
      3.3613780030266521e-001 5.1934122130362845e-003
      1.5100889790900167e+000 -7.0700385663591006e-002
      -1.9954806081879456e-001 -1.2554035682776801e-001
      -1.0893483752801696e-001 -6.3779705724134872e-001
      -8.9678224837958495e-002 5.1753670785428108e-001
      -2.1236047588694987e-001 5.4476080902639182e-002
      4.1290357088892171e-001 7.3275809211776166e-001
      1.1253985531614341e-001 1.8726366181920626e-001
      3.2412384946039937e-004 -2.1879794003328551e-001
      -1.6404131224626273e+000 2.7186879964025600e-002
      -3.5230250364161697e-001 -2.4491725653462501e-001
      -3.3050766416744670e-001 8.8617890638416708e-001
      -1.7953733264963578e-001 -3.7813147955611426e-001
      6.8173044862203325e-001 -1.7477245464008989e-001
      2.1244158628314305e-001 -4.2509429076478911e-001
      -1.9302744771923722e-001 8.2883145625685314e-002
      -6.9359214989526824e-002 -1.1756127676819811e-001
      -8.9177434587006332e-001 1.5740607271533047e-001
      3.2488104992620687e-001 -3.8120604392899454e-001
      -4.3552603084386549e-001 -5.1563426202972308e-002
      2.3390437840133441e-001 -1.3319308194025520e-001
      2.8044810237209011e-001 -6.7182015077419510e-001
      2.1060501736542706e-001 1.9149750192756311e-002
      -2.9897989572940425e-001 -4.4308936949069366e-001
      -6.0362093756620860e-001 9.7661343798840686e-002
      -3.9872433844620883e+000 5.3874119323965108e-001
      3.0132873696365126e-001 4.0096643273962645e-001
      2.0341171783762707e-001 -6.0130283056954270e-001
      5.5288868521042422e-001 7.8340648974800886e-001
      -2.8320118028784258e-001 3.4295056210880459e-001
      -2.8975244233070568e-001 -5.5193487606151215e-001
      5.5856660508878109e-001 1.8416677984228195e-002
      3.9237952291344064e-001 -1.9861728119321354e-002
      -4.0722598983055764e+000 2.5946257252910065e-001
      3.7719661479516103e-001 6.6327429668476134e-001
      -1.3096517852278947e-001 4.5443391706267416e-001
      -3.4855917201004011e-001 1.7417793754948721e-001
      -1.3543501147080983e-001 9.8502401123858419e-001
      -2.1209415350182151e-001 -2.7718237586838848e-002
      4.9865248738053147e-002 2.1462310808709900e-001
      -3.5646070413161833e-002 1.2686098395136783e-001
      2.7000742905224597e+000 -1.9410089103445421e-001
      -1.3345025270324687e-001 -5.2863477023462413e-001
      -9.6738534606626170e-001 -1.7185274585247784e-001
      -7.1549603564806885e-001 1.0347889049211367e-001
      3.1628488881974565e-001 4.2960646231921790e-001
      -2.9144421711811469e-001 -5.4603694338051267e-001
      -1.5299516236689448e-001 -4.9030430055003082e-001
      -1.4228673193746297e-001 8.2424995471170243e-002
      1.0972916871974356e+000 -9.9336317080809491e-002
      2.1696575427775108e-001 -2.3397411867015641e-001
      2.6706031721062279e-001 3.6920986352169616e-002
      5.8708008146599366e-001 1.5591992391122378e-001
      -1.1664753739470284e-001 6.5855958563628192e-001
      -1.2990575855826672e-001 2.2834194427738333e-001
      -1.2613233313176492e-001 -3.8190974474100903e-001
      3.5438453629578254e-001 -6.3670220914280359e-002
      4.8286528142793159e+000 -2.9714563996191351e-001
      -7.5267769662676620e-001 -4.2840588299865573e-001
      3.9912489405931884e-001 4.6042606065713743e-001
      7.1930443727161819e-001 -4.0292697057466204e-001
      -2.5686662549042039e-001 -4.7367918067161557e-001
      -1.6369569593082578e-001 5.0310586043381000e-001
      4.4903836830684873e-001 3.7627077422373201e-002
      3.7152203983516413e-001 3.4982853372193971e-002
      5.2358333738891085e+000 5.3975177750535297e-001
      -5.9923289991944861e-001 -1.6588807859617369e+000
      -2.1084151819559202e-001 3.9529740801124930e-001
      5.6717201409767859e-001 2.7922924080644479e-001
      -8.1444617038859313e-001 2.8848056425687052e-001
      -4.6044783626368280e-001 4.2078061904203615e-002
      -2.7215706702330855e-001 9.1574177899859999e-002
      3.7720959784203389e-001 -6.6828911430666027e-001
      3.6923826179723287e+000 -8.0781950351786469e-001
      -5.0064256061665779e-001 -8.3700604815729573e-001
      -6.3367710615759168e-003 5.6702580650141006e-002
      6.6381966449744600e-001 2.3953059162602644e-001
      -2.4674058925924308e-001 -2.6810139496947444e-001
      4.8452354393964725e-001 -3.8286938849577251e-001
      3.9295872609401444e-001 2.2419974973910638e-002
      1.0242188392308025e+000 -1.1111696804663775e+000
      1.8261295864670968e+000 -1.3743924387816106e-001
      4.3209150508832778e-001 -5.8691937492366186e-001
      -1.6993392916123493e-001 -9.9597287038971172e-001
      4.2907834872943179e-001 -1.4862324519243936e-001
      -4.7656750544634130e-001 1.8531897621156385e-001
      -9.1075137652452753e-001 -4.3182894201902255e-001
      -1.8189594725964203e-001 3.8764289967310811e-001
      -1.6824681957296964e-001 -8.6504483273122296e-002
      7.2711890887414699e-001 3.1409361424191651e-001
      -3.1604492786173616e-001 -5.3709075013641649e-001
      1.0032359982066719e-001 -2.5628234899319213e-002
      9.3245529836453422e-001 2.6873336303590589e-001
      1.9273673508337300e-001 3.8646424229066112e-001
      -1.0596527285653252e+000 3.7199296933242781e-001
      -3.0610410056917465e-002 1.0361522214784111e-001
      5.3502020466215983e-001 -2.4055750191814704e-001
      3.1019302928758180e-001 6.8825437829168024e-001
      3.9107811987635971e-001 -1.2151826706743560e-002
      3.2695812590885226e-001 2.3481883921442739e-001
      4.2755590288663453e-001 -1.1874017970904135e-001
      7.7830828447088510e-002 -9.2066136610949909e-002
      3.1746330732517414e-001 7.1282291420556781e-002
      4.7014881152942473e-001 2.1399624328930406e-002
      6.1576757693999629e-001 -4.4283503670384354e-002
      2.6015019600266229e+000 5.3758213111117337e-001
      -7.2947010966563108e-001 -8.1159117572885653e-001
      6.5059725753055950e-002 4.5549211811019126e-002
      -1.7657246659612735e-001 2.7028382912029622e-002
      -6.0235263828999208e-001 -3.5148494918882064e-003
      -7.0919002013997187e-002 8.9712747539131624e-002
      -8.1311514620505593e-002 8.3501473432372464e-002
      2.8446508781472740e-001 -1.0654468065895165e-002
      4.4516004270894554e+000 -1.3980148475838272e-001
      9.5819322855270908e-002 -2.1747662166635096e-001
      -1.1777932461118337e-001 -5.6089952691858747e-001
      6.4619996016950543e-001 -4.6328605734883582e-001
      -6.5245208257201681e-001 2.0523747827386613e-001
      -1.6965716291085337e-001 -2.0466205529131709e-001
      -7.0394225883679051e-002 5.0850467174802305e-001
      2.8049181124403499e-001 -2.4992368343225768e-001
      4.7608132468702147e+000 -3.0787902083526003e-001
      -2.0730958565158913e-001 9.0360623592329284e-002
      4.9671687526667530e-001 -6.7748561235877180e-001
      -2.3420498102602141e-001 9.8941032660747674e-001
      -3.1655801666737904e-001 2.9260715669068998e-001
      -2.3706204773955533e-001 4.4560780660678645e-001
      2.9161623194811209e-001 1.7095592181970775e-002
      1.4040886468966027e-001 -1.9159491171282469e-001
      5.2330067511071494e+000 5.8045957002615656e-001
      -9.4392170548276644e-002 -6.5999569147515169e-001
      7.1014220513660603e-002 -4.3518498819651663e-001
      1.4588660631858744e-001 1.1076495571308118e-001
      -1.0586717029990214e+000 -3.0600163545449288e-001
      -4.9334294135908313e-001 6.1253145611915423e-002
      3.9423815589139960e-002 2.1843532803937846e-001
      -2.0860095655071978e-001 -5.2339260707298323e-002
      6.6756452652019460e+000 -5.1804529473443983e-001
      -6.7556983760658607e-001 2.2081687469754276e-002
      2.1437821058161094e-001 -6.2228014432223633e-001
      3.4233769364658113e-002 -8.2435677488870110e-002
      6.3208955746690343e-001 -8.7555629529624673e-002
      1.9084154987662605e-001 -3.1029492459659319e-001
      2.5222443053282112e-002 9.6789547931941545e-003
      -2.2303434355736854e-001 1.3281178568358216e-002
      4.2924207766596458e+000 2.3448450661031137e-001
      2.2974172378757202e-001 -9.8018987846143435e-002
      4.7322725036158100e-002 -4.6590255246247841e-001
      -1.8166336520390011e-001 -8.6071096882031586e-002
      -1.5183394231625244e-001 5.8673342553255414e-001
      -1.0728949226429965e+000 3.6345743293286235e-002
      1.3091041796266711e-001 5.7007220557403870e-001
      2.8690949458510251e-001 4.8122917424390836e-002
      3.9026076242138696e+000 6.6481202301474218e-001
      6.3616974270861038e-001 -8.4758555587684387e-002
      -1.5220559838619552e-001 -6.8733307309999703e-001
      4.2500490991188612e-002 8.8266891925603705e-002
      -6.6757806991862356e-001 7.5773352416604567e-001
      -7.5901322754439482e-001 -1.7066268800933004e-001
      -7.2620518751858959e-002 -4.0410126803660781e-002
      -1.0131379052300453e-002 5.3025085756784315e-002
      -1.6977264999111576e+000 1.7381872060656442e-001
      3.4033766712444918e-001 -5.0265367350212409e-001
      1.2812850199484775e+000 6.9754414559469002e-001
      1.4916561331588727e+000 1.1855800498455096e+000
      -1.0467027545608520e+000 7.6101365083993944e-001
      -8.7527370425430595e-001 1.1677503674838026e-001
      4.8098006688090206e-001 5.0596055153188590e-001
      6.7311029544750056e-001 -4.1168349448444674e-001
      4.2484482153395292e-001 4.4689328332893452e-001
      3.8181415469031771e-001 2.7681582650128206e-001
      4.5835156971636959e-001 -6.0053286414765750e-001
      -2.6376651153214015e-001 2.9709094465922209e-002
      -1.1442986284470440e-001 6.2982095055139264e-001
      -6.8458279582860229e-002 4.3924091781773762e-002
      -1.1737214065068537e-001 3.9290955132299427e-001
      -3.1212341102585978e-001 4.2716368637106411e-001
      3.9658046061754111e+000 -6.9037854094837259e-001
      -9.1021898242873378e-002 4.3949896394343024e-001
      -5.2472666514747557e-001 -9.8930347238307070e-002
      -4.1741014555041117e-001 -2.6107359942599845e-001
      1.9986857419268981e-002 1.9930618361600877e-001
      4.5032459604618197e-001 5.5253388071837206e-001
      -2.2269601003530395e-002 -5.5280380229587155e-003
      2.7841668696896993e-001 -6.8785726834589511e-001
      4.7903981380680838e+000 2.0543616914474427e-001
      -6.5013124427491042e-001 -5.7100036047143998e-001
      6.4679020946506183e-001 -1.8071431282541822e-001
      2.7951470674717949e-001 -1.3628295443346222e-001
      2.2296035050960719e-001 1.9975427250044306e-001
      -2.1892535037777414e-001 1.5012291570864489e-001
      7.3048850959006581e-002 3.3223204574880211e-001
      -8.7851460600293252e-002 3.5114036018027549e-003
      2.2597840268483864e+000 -2.5563397912717006e-001
      -2.6030377630686191e-002 -4.2624780171484072e-001
      3.2291341489224773e-002 -5.9855512839672065e-001
      4.8587743242913373e-001 9.2802730926209498e-002
      7.1734969568940030e-002 2.4309159285372132e-002
      -7.3045750969808712e-002 3.0069923730500409e-001
      -5.5794788473385029e-003 -6.8218520366471552e-002
      5.0426032660881059e-001 -3.0227187771583836e-001
      -3.6478128314326965e+000 -5.1874143213227020e-001
      -9.2459113775361590e-001 -5.0413970854523171e-001
      5.1134338562547699e-001 -5.9920945663260849e-001
      2.2114119095074050e-001 1.1257798393293023e-001
      -1.0743549366494239e-001 1.0822785994470627e-001
      -2.0840327155543897e-001 4.6350464921179384e-002
      -2.4285610724043549e-001 1.7950547073342518e-001
      -2.5435534082570660e-001 -2.4369242540914687e-001
      -2.9519161980554647e+000 4.2518227426228794e-001
      -2.2315255791964553e-001 -1.9633481724306429e-001
      7.1879480923310901e-001 -7.3061498028121494e-002
      6.3190222432087151e-001 -1.8162354774287484e-001
      -4.9189644821458456e-001 4.3116211366700219e-001
      -2.8671834833055054e-001 -4.1570514217192028e-001
      -2.6067827603901605e-001 7.3894297390714636e-001
      6.4878550940333624e-001 1.5787018720379460e-003
      -5.2119531720507695e-001 5.8643397483644819e-002
      1.4396177511084077e-001 -6.0318381110757180e-001
      1.8640986753736186e-001 -4.0294542676319051e-001
      2.6143789702671033e-001 2.6432366817413627e-001
      -2.4254972188343732e-001 6.2578594429104217e-001
      -6.4689239903559415e-001 -6.4929097502079633e-002
      1.4666308324494167e-003 1.0752982912732785e-001
      -1.0934898465512833e-002 -2.4673940755736035e-001
      -8.3923614911819189e-001 1.5802836815419563e-001
      -9.0877341777786419e-002 -3.9238852152793535e-001
      -2.8548442521127348e-001 -5.5287530700195286e-001
      3.9021189769947939e-001 3.1323479031874601e-002
      -5.3319848112603851e-001 -2.8740394852918429e-002
      -2.8666640412886712e-001 -7.4524574320529735e-001
      -1.9482541199916220e-001 7.1261285340869940e-001
      -6.3532586735308899e-002 -2.1192549921441803e-002
      2.7486879913477473e+000 1.8000539853901981e-001
      -1.6024904275146154e-001 6.5321113259590802e-001
      4.9951005152677741e-001 -9.3386488122991351e-001
      -3.0888308260353745e-002 4.1341501986129792e-001
      -3.5835108809996208e-001 4.1145854822198719e-001
      7.1893255218736341e-001 7.0475896125076254e-001
      -1.1819963184626996e-001 -6.0614733427052792e-001
      3.9634186269297489e-002 5.0237774958309078e-001
      -6.0498666414970181e-001 2.2332115789296927e-001
      1.1214730486169887e-001 6.5687387993912016e-001
      -4.3695422317900856e-001 4.0751336885685396e-001
      -2.7696893998771310e-001 9.7497074979358778e-002
      -5.8045260482064820e-001 1.1752456447071374e-001
      -4.6129635205715463e-001 1.9514493863562477e-001
      4.7067173864639759e-002 3.8680870640419107e-001
      -2.6197398794714372e-001 2.0215875130577207e-001
      6.4746628487643565e-002 -4.4866272837993444e-002
      -8.3839732249168020e-002 3.9216971944214490e-001
      2.0735719869135052e-001 -4.6953210333504469e-002
      2.5278001309600791e-002 9.3513850222362349e-001
      -4.6750674242226647e-001 2.4507711130862150e-001
      -8.1228127129739336e-001 -4.1564392653948223e-001
      1.5484064612350060e-001 1.7634101861092408e-002
      7.5937961381738986e-002 -7.6525522200254625e-001
      2.9813673742564712e+000 -4.7805906806669324e-002
      1.4050452171837263e-001 -8.0920851576898589e-001
      4.2998539239669081e-001 -4.7854479566877167e-001
      3.8299397642473881e-001 2.1363589612217043e-001
      2.9689169543298327e-001 4.6601148368260426e-001
      5.5108218746417259e-001 2.8026672669482605e-001
      9.7555648195796721e-002 2.1426411295216821e-001
      5.4356303774294512e-001 1.2394003205770339e-001
      3.7344187372577733e+000 2.8669399459827612e-002
      6.4800142705573494e-001 -3.8749848379455415e-001
      5.3523520023466975e-001 -2.0705437800541193e-001
      5.7438029847651184e-001 1.1089730143242517e-001
      -4.5211457199001409e-001 1.8995324761404650e-001
      -7.8148461984202555e-001 9.0587791609899970e-001
      6.2684501672742726e-002 2.5078682378505079e-001
      5.2386634366532170e-001 -7.4129355502474115e-001
      4.6313476255829205e+000 5.7193070001581370e-001
      6.2086889795048905e-001 -1.1479075660328786e+000
      2.6577639230482381e-001 7.8578537772320800e-001
      6.8294538890404100e-001 3.0020593002732199e-001
      -2.8411048816148421e-001 -1.0410112772593447e+000
      1.0999048947994926e-001 5.3635202378921765e-001
      1.5655444643469721e-001 -7.3480864105480959e-001
      1.3179040052879959e-001 -3.7455099341673390e-002
      1.1291496067554094e+000 -1.9129749331063506e-001
      1.3603794511765427e-001 -2.9313580201640121e-001
      1.7698850776802369e-001 -2.5710528132530963e-001
      -4.0594671226937168e-001 3.6048974846064780e-001
      2.3519862790714616e-001 8.9197410228179763e-001
      -1.4546004774031451e+000 3.9984401671184561e-001
      6.7849440045471221e-002 -2.5040703496783384e-001
      -1.1776749285596391e-001 1.4100629556045577e-001
      1.8071028830844034e+000 -2.5893007679166989e-002
      -4.4396447069199940e-001 -2.4097089604546507e-001
      6.0247141887940536e-001 3.4408142900193089e-001
      7.0151563893692412e-002 -5.2294348866593288e-001
      1.8490797422321303e-001 4.4828748229399901e-001
      -4.5374345746061517e-001 -1.5860478661217453e-001
      2.2886628485893992e-001 3.4251461924256538e-001
      -4.2842516100358186e-001 4.2600023656809531e-002
      1.2777664279588571e-001 -8.6942283201107307e-002
      -1.4715613361721003e-001 1.7466882753484747e-001
      -3.1143198059071597e-001 2.4028674723363722e-001
      3.0630221001428060e-001 7.5133830162679005e-001
      -3.2668353294034322e-002 7.7979160861785934e-001
      -3.2147967614528161e-001 2.3515683231195789e-001
      3.9157957965508300e-001 2.3153135287368704e-001
      -2.8399789988713198e-001 -4.7257451266457995e-001
      2.7145362737393954e+000 -2.4483889763771682e-001
      -2.9680564379564695e-002 -4.1268752026160826e-001
      2.3170245501398748e-001 1.7200017747939919e-001
      -3.4096454636711387e-001 -4.3981704275874882e-002
      -6.0745066025611949e-001 1.7026280307364891e-001
      -2.8542875132353401e-001 4.4243508094925094e-001
      -1.1371726877098484e-001 1.3886695936986970e-001
      2.8891244546887890e-001 3.8254934513137578e-001
      3.0336217577666251e+000 -3.1017553244772997e-002
      -6.3026454907126017e-001 7.0503038133357107e-002
      -4.5052197019070983e-002 -5.5396024817617662e-001
      5.8479656347784004e-001 -3.3679542947219226e-001
      -2.9640757009831184e-003 -4.0638534895129158e-001
      3.4792281708141688e-003 -2.9805429869415195e-001
      1.4795803975814886e-001 4.6757102608177353e-001
      -1.0802033661648354e-001 -1.5176369122956504e-001
      -8.8421278585114949e-001 3.6844561614919868e-001
      -5.4687369627000848e-001 -5.9749551798546996e-001
      7.0306623870372764e-001 -1.5096915037813538e-001
      1.3757233300198832e-001 2.2904967973913606e-001
      -1.6847320999958337e-001 3.7166317339577726e-001
      4.5688246384490955e-002 7.8164462751211117e-001
      3.0004386377726854e-002 -6.8608333254669557e-003
      2.5796612949652542e-001 -4.2297326525918655e-001
      -7.3124420665133694e-001 -6.4467225025790187e-001
      -3.9611377106685369e-001 -6.7969099293176771e-001
      4.2450776741787688e-001 8.8467469401402030e-002
      5.3098112654517268e-003 -2.4019302395051907e-002
      -3.9272979943093500e-001 -4.5149293876024593e-001
      -3.4136353335501518e-001 -4.8995933846919132e-001
      7.9604064510793854e-002 5.5609638368731218e-001
      8.3125185180782990e-002 -5.6975809109161495e-002
      -8.4580343464194474e-001 2.4348459848985049e-001
      3.6848501026420227e-001 -2.9629677787407521e-001
      9.2246346327205603e-002 -1.4335927916722011e-001
      4.4252430181859115e-001 -2.6402159166803130e-001
      3.1208828828993668e-001 -3.4360437283430711e-001
      -6.3366671061134791e-002 3.8629445951936486e-002
      1.0439505160394130e-001 -2.4837491411769896e-001
      3.5490459819733494e-001 -7.9971353199237294e-001
      -1.7070052831706652e+000 5.1042102282906943e-001
      3.8092058996294115e-001 -4.3591678291599306e-001
      6.3583010778733062e-001 -1.1269956787421949e-001
      -3.5760828674011820e-002 -4.2829879374523722e-001
      2.0564468164927216e-001 -1.8260664885972136e-001
      -1.0836407833407218e+000 5.9746065472921439e-001
      -2.1368711656300507e-001 2.2800140618243217e-002
      2.1714168206751142e-001 8.2018188585831375e-002
      1.5173878840106036e+000 -9.0468750556717492e-002
      3.6385297527414534e-001 -2.2437908235786044e-001
      2.9084402622865796e-001 -5.1606562711400383e-001
      1.9859122260798740e-002 -5.2242240858598146e-002
      1.0232466962841436e-001 -3.1201979412221623e-002
      1.9641542403190013e-001 -1.7112887421002254e-001
      9.0973540585818288e-002 -7.5099670962557388e-002
      3.8447217786734399e-002 -3.8446714520491987e-001
      1.0987534831163421e+000 2.4671433371355533e-002
      7.9582578764391432e-001 4.9578856147586017e-002
      1.0496344268496853e-001 6.7958182850801141e-001
      2.6046226547415646e-001 -2.4943201667403966e-001
      2.0072547620742867e-001 3.0857869553275030e-003
      -1.7496496255772454e-003 -5.0176196947544005e-001
      -2.5968427100959923e-001 -1.3631698871515152e-001
      2.6245711442427122e-001 -7.9320993472416140e-002
      4.0954639795651575e+000 -7.8173407721951541e-002
      -5.5139159295202161e-002 -3.2050628801554143e-001
      -8.1551401950487856e-001 -8.3750397023104040e-001
      -4.1881342924909737e-001 -2.9231464827820614e-001
      -3.7442536064915571e-001 4.4119365130010912e-002
      1.1948380934628394e-001 1.9205999352140180e-001
      -3.9204277743610005e-001 -2.8062716902717061e-001
      2.7948251193610368e-001 1.8793749405703439e-001
      1.2087816043674413e+000 2.8186459370367789e-001
      -5.2827561746507413e-002 -9.1825898557826979e-003
      -1.6778875621987685e-001 1.7569700970557031e-001
      -3.3754422789026090e-001 3.5875958721399187e-001
      1.6251044873982828e-001 -3.3400002400209060e-003
      1.0411694856382875e-001 -1.0801069657670802e-001
      -2.2550210417843577e-001 -1.3848348111183126e-001
      5.5340168732063977e-001 1.9176413226737093e-001
      5.0745909991729929e+000 -6.0912985715356127e-001
      6.6969045847333417e-002 -3.8574023446657763e-001
      -3.9191244728216090e-001 -5.0593675332959853e-001
      -1.9943884020212996e-001 2.5057033257006017e-001
      2.5357370257855322e-001 1.2000335307736117e-001
      6.6895908339346821e-001 2.3365257331480074e-001
      -9.5322913078421494e-003 1.3497023128721222e-001
      6.4796069776970133e-001 5.1457066904882359e-002
      4.4524048973433157e+000 2.2743754614421530e-001
      -2.2987104644781564e-001 2.5474798324087827e-001
      1.1398108091807873e-002 -7.4997529933347365e-002
      -1.5928562002278374e-001 -1.6576555573925156e-001
      1.6890009940055054e-001 -1.3633467379391798e-001
      5.3299957098846287e-002 -2.7250181465566148e-001
      -1.9763367535673582e-001 -2.1019181626409314e-001
      4.9001706924935318e-001 5.9409954144191625e-002
      2.5620655600643816e+000 -2.5980329392716800e-001
      -5.9706307113557600e-001 1.6775736106921610e-001
      1.5603701521214752e-001 3.8111090215621973e-001
      -1.0988726391532157e-001 7.8801593627099584e-002
      -1.4728549096393193e-001 -1.8808117536812177e-002
      6.4951017076286824e-002 1.3090235975318631e-001
      -1.7905789661315893e-001 6.8111499417361576e-001
      -1.9908141380530684e-002 4.5451267772573778e-001
      2.6630185470153154e+000 -7.2856731083670168e-001
      -3.6750032195154592e-001 2.6300871184150737e-001
      -3.7594998225000453e-001 -3.0633656814245752e-001
      1.2671529296398346e-001 -1.6479877548956132e-001
      -3.6345122332641163e-003 -4.6372837879976064e-002
      6.8018789300426885e-001 8.0988424045271223e-001
      2.4202025299401855e-001 2.1262049265842958e-001
      -3.9127314515804107e-001 1.0784130953415771e-001
      5.4650613750226293e+000 -3.3307386133005995e-001
      -1.0626753042024772e+000 -6.1219357381427264e-001
      -6.8055695918065284e-001 -3.3185905640034807e-001
      -6.2013242330425622e-001 -7.8179497182846347e-001
      1.1655221079366211e+000 1.4281179455058931e-002
      2.9886204754775758e-001 -7.2732548945352005e-001
      -7.3013147878204024e-002 -5.0441283192304320e-001
      4.5439465018264258e-001 -5.3496609018530775e-002
      2.0305031207794944e-001 7.8106735809728600e-002
      -3.3204194962663247e-001 9.0272343886415507e-001
      -2.9772492333348832e-002 -2.4005026246697264e-001
      -2.8436922749436916e-001 6.0640135461465250e-001
      -1.4009574374560838e-001 8.2461396930473341e-001
      -1.4948722205258763e-001 6.8275238800119487e-002
      2.3129366229108464e-001 1.0024601512985155e-001
      -5.3741278566367023e-001 2.3428737756989376e-001
      1.7598049006822375e-001 -2.4678542594125508e-001
      -1.0466720241011883e-001 2.5096278607358541e-001
      9.0738002518612682e-001 -2.6061138470406403e-001
      -5.9784549250986821e-002 1.6371754670944524e-001
      -2.5359377437082373e-002 -1.1908450789016468e-001
      -7.8746210230315461e-001 1.0790270509508035e-001
      -3.4415865324051990e-002 7.0435777203802383e-002
      -3.7599043086177597e-001 5.7485502962330695e-002
      5.4059229482482585e-001 2.2680268826200431e-001
      -2.4129753244598931e-001 5.0967006402619341e-001
      -1.9960814022351314e-001 6.2570086498801636e-002
      -3.6374230131631829e-001 -2.2036742348639768e-001
      -5.4483092100017494e-001 -2.2388886528536942e-001
      -4.2902879852082010e-001 -1.7021896734950967e-001
      2.8081286647473996e-001 -7.7890032524655817e-002
      -2.1821867675442341e-001 4.0911529598297613e-001
      -2.4403364692875944e+000 -5.6697593941795299e-001
      -2.7610679535014372e-002 -5.2603890394382569e-002
      -3.4557784034713712e-001 -2.6558993192086400e-001
      -1.3324175100249380e-001 2.2362583730060415e-001
      -2.3024225931308009e-001 -1.6850885252691405e-001
      -3.0021675355090111e-001 -1.6318632082051635e-001
      2.3840517659510274e-001 1.5857993069630610e-001
      2.8920959101346597e-002 2.4448077478045896e-001
      -7.6360436024200518e-001 -1.1382569707785337e-001
      7.1026920464699550e-002 2.9856088134022307e-001
      -7.4017214350309821e-002 -2.8238590369511157e-001
      -6.2473187073687941e-001 -5.7933544104031502e-002
      1.9929904646412577e-001 4.2405801104640817e-001
      -3.5754448896798985e-001 -3.0276277201971752e-001
      -4.7014082963177467e-001 -1.1245292849801165e-001
      -2.2871003943184970e-001 -3.0402977946165405e-003
      -3.2719413734244220e+000 -9.4344265008700204e-002
      7.3174818385675011e-001 -2.1242650997634180e-001
      -2.2519052096606668e-001 2.3493684529097261e-001
      6.6510879627413491e-002 4.1195176513533349e-001
      8.1496012066795118e-002 3.3830406397178148e-001
      -4.8890865041537340e-001 2.9208165340096831e-001
      1.1064622015851582e-001 3.6182100627782258e-002
      7.7546538052256628e-002 -1.5141159764322890e-001
      9.6944850801860905e-001 -4.4789118291152466e-002
      6.7037626101757583e-003 2.1295641307965882e-001
      -7.4690680058528502e-001 -7.7877711149159090e-002
      6.4844152739624372e-001 3.4653898499116159e-001
      -1.8284759436727116e-001 -9.8088069948675777e-002
      -3.9166058419428768e-001 4.5837705268932566e-001
      2.4647185404470145e-001 4.1780188075381107e-002
      5.1925263940742283e-001 -4.1345338064297682e-001
      2.4548883705448619e+000 1.1351039913407324e+000
      3.9628079816161538e-001 -6.4224864218767608e-001
      2.6188854773170073e-001 -8.5874694821100228e-001
      5.8778478365147468e-001 -6.6834825588379138e-002
      1.2596830875088949e-001 -3.2105915375389138e-001
      -1.3186860404845160e-001 5.2328627606822642e-003
      -2.4008344142097568e-001 1.0404158265193501e-001
      3.6279259300268024e-001 2.2955745140070972e-002
      -1.5981473213484207e+000 5.4336074734634388e-001
      -4.5345030231422140e-001 -3.9632544013996618e-001
      1.5832842914536241e-001 -9.5776208830351137e-002
      4.1187933630871587e-001 -1.8235562142613868e-001
      -1.8796619509086263e-001 2.8445294549064077e-005
      -7.6866095117993161e-001 6.6382655808034069e-002
      -1.2403834017118988e-001 1.6787310814959736e-001
      -4.9337329527430496e-001 -2.7937186551352189e-001
      -5.3850010135620441e-001 3.1696347809248310e-001
      4.6448150850407649e-001 3.5917372928182495e-001
      -4.2065646720725702e-001 -1.7993310276805297e-001
      6.7312978396600254e-001 5.8255101675654941e-001
      -3.9721883183734680e-002 1.8441338428268975e-001
      2.9919975144303779e-001 2.4034990412866830e-001
      3.5026784150108786e-001 2.1485685488363609e-001
      -3.0393654941561860e-001 -2.9004099436604466e-002
      -1.9157293970705918e+000 -2.6424952325908503e-002
      1.9317758142337829e-001 2.6673393108330629e-001
      -2.3464564593766404e-001 -1.9235984691826818e-001
      6.8002599783143891e-001 -2.7201950685677845e-001
      1.1229268719512063e-001 -8.4223192990972051e-001
      1.7813122347861618e-001 -3.5723592519105718e-001
      -6.3656208512662737e-002 -7.3541835615534026e-002
      -1.8417423000994892e-001 6.2783005581098772e-001
      4.0319843718794450e+000 6.4323003326577188e-001
      -4.2360111161400166e-001 8.1339671136762615e-001
      -2.0770316033374581e-001 -4.0488650199631326e-001
      1.1075437998248508e-001 4.5677118004472506e-001
      -3.5273233039394425e-001 -2.3606597308245886e-001
      1.5814963762513642e-001 4.3646509916097281e-002
      2.5848413088098047e-002 1.3700622245293945e-001
      -4.3001605834461426e-001 3.2281854920156561e-001
      3.0089760510054924e+000 -2.7620831807269408e-001
      1.9119769224939373e-001 5.5221061934164151e-001
      7.6916809743401857e-002 -1.4000231396003149e+000
      -6.0284081571361225e-001 5.9707172455972148e-003
      -8.7403572488642417e-002 4.7476473681311260e-001
      -2.7775019497400893e-001 -4.6214781370901181e-002
      2.0949777346682313e-001 2.2529484116291726e-001
      -5.2765887402074785e-001 3.0202332377632690e-001
      7.1038223653246391e+000 -7.7959979529761358e-002
      -1.8634839895764210e-001 7.5239169943291184e-001
      -9.3349229467252615e-001 -1.7435433913601850e+000
      -5.5120167085292993e-001 -2.3897865780090594e-001
      -9.2263649852249330e-002 -1.9459686935770087e-001
      3.0996229608298700e-002 -6.2684812543797219e-001
      1.3577685450387528e-001 -5.0658518309464629e-001
      2.5414025307033211e-001 1.2643831433792163e-001
      6.2839539033597740e+000 -5.2844576322195184e-002
      -1.2476926152401659e+000 2.4197994636256945e-001
      -3.3718297010000714e-001 -9.9681642546411509e-001
      -5.7333763704935281e-001 -4.5759838793262786e-002
      5.8686064165700025e-001 -2.7903620675262647e-001
      -3.6517960777427044e-001 -1.9230549602094649e-001
      -5.0878451057438456e-001 -1.9126854620946471e-001
      3.5950724444793408e-001 2.4353807919391113e-001
      9.5340419439073951e+000 8.2314033883000015e-001
      -1.5829620736042986e+000 -1.5250900026669414e+000
      -4.6025349597625120e-001 -9.4914855156962175e-001
      -6.8512183085258394e-001 -1.5918763415836976e+000
      -5.3457506431924395e-001 -2.7366544715999099e+000
      -3.8123821234191374e-001 -1.6365453890589619e+000
      -2.1047822147482553e-001 -3.2372825286202805e-001
      -6.7811431522965177e-002 -1.4459883056069661e-001
      7.8463672231098250e-002 5.5504241209844185e-001
      1.6560585659422311e-002 5.0977872682262659e-001
      -2.0894799208534778e-002 4.4098002856339724e-001
      -1.2202358572794418e+000 2.4289359898422505e-001
      -4.0681763398534621e-001 1.2661562558139280e-001
      3.2549251523053724e-001 3.8087591586365521e-001
      -4.4831691643559229e-001 5.6209787195962813e-001
      -3.1489217873000602e-001 1.2233367210656516e+000
      -2.7178277346387802e+000 -8.6685599511172229e-001
      7.3200651778827386e-001 -4.7879934308218730e-001
      4.8256506304670205e-001 1.6187116623859618e-001
      -2.4658395519920950e-001 3.6737802974430861e-001
      3.0138563310696803e-001 -4.4960100992515994e-001
      -2.6860114314326822e-002 -4.6394805221808244e-001
      2.2563771502675464e-001 2.6957629826236706e-001
      -9.1481988473147619e-002 -2.0444347260413992e-001
      1.2754570322850359e-001 -8.1668093623945850e-002
      5.4598486093318821e-001 -4.0304328856248206e-001
      4.0964976030199174e-001 -4.9781968932058085e-001
      -7.8917962368867955e-001 9.8330943483294728e-002
      1.2089898824096749e-001 1.3393925622642626e-002
      -5.3782947652326241e-001 -5.4625422424056558e-001
      3.3029740795531470e-001 2.2567251737851107e-001
      2.2218915864446617e-001 -2.6164604318799206e-001
      9.3511372839787599e-001 4.1979549556635143e-001
      -2.1273968836219534e-001 7.4668674604082552e-001
      8.5599982436566535e-001 -2.5450177437209820e-001
      -8.3152415354858192e-002 2.0091400295447898e-001
      -7.1880808676230035e-001 1.7266077888709769e-001
      -3.8114925180818676e-001 4.1359491480281459e-002
      -3.6366041655679626e-001 2.1140941308963498e-001
      -4.4260246426573324e-001 5.1541869884299729e-001
      2.8994016588053055e+000 -1.9939634745256618e-001
      3.4676368539321900e-001 1.3812601852937922e-002
      6.5644232581795237e-001 -9.8285369213909779e-001
      -4.6544528625759342e-002 -9.9274066723835408e-001
      1.6935641033603502e-001 1.7320133952003175e-001
      3.9582260822086834e-001 -6.9508823356577321e-001
      1.8481038889471940e-001 3.6751288585143660e-001
      9.2778197876906623e-002 -4.3074411280075159e-001
      1.0780707295116907e+000 1.8206157296715453e-001
      5.8697757048144783e-001 -2.9548921641828979e-001
      5.8889018745913269e-001 -8.2925958440046166e-001
      -1.9770069111746352e-001 2.5903240172465558e-001
      -5.8626862626240750e-001 1.1701914467198235e-001
      -2.3518976725007387e-001 -4.0975526439788995e-001
      -2.7347683520604332e-001 2.2274825900825351e-001
      -2.3571932839189552e-001 2.6625490800699841e-001
      6.3713396161144713e+000 -5.4434029125682970e-001
      -3.2629651884535621e-001 4.8991903485681038e-001
      2.2136991514019135e-002 -2.6989660982170699e-001
      5.2191656353917137e-001 -2.4669737796709870e-001
      -1.8367319691288633e-001 -3.3088274069887885e-001
      -1.4453856869547291e-001 -2.4159207552898815e-001
      -5.3347010444248735e-002 2.4393452017521855e-001
      -3.3217682354427935e-001 2.8500724459383842e-002
      3.4756084556812783e+000 2.6054871645782318e-001
      2.7162913879200640e-001 2.0523927992192385e-002
      9.7985916555139774e-001 1.1071679115149480e-001
      5.9483703449818259e-001 6.8276114989232972e-001
      1.5183094592881791e-001 1.8078686994523960e-001
      -3.6945322160626820e-001 4.2738167161110389e-002
      9.6124472307454190e-002 -3.8963840827834395e-001
      -8.8047474636872392e-001 2.9067332294627445e-002
      1.7667644992531353e+000 4.0030529347097124e-002
      -6.3471060817044095e-002 3.7189435327582604e-001
      -9.7570750252851712e-001 7.5330794281346758e-002
      1.8070446275751148e-001 -2.4947368603156239e-001
      2.8568406926161077e-001 -3.1541730042628613e-001
      4.2167321004445829e-001 2.5489879547952194e-003
      -4.7015659523938158e-002 -5.1362441554415050e-001
      -6.9596826951419266e-001 1.0711496404494307e-001
      2.8769581986124169e+000 3.6231497108043992e-001
      -4.8996324573795824e-001 1.6649084501783490e-001
      -5.4725804316189786e-001 -4.3274220437525751e-001
      -4.9085508164192077e-001 3.1027726326753474e-001
      4.1602568165401532e-001 -4.0984387468715067e-001
      3.6668147715736377e-001 7.9110308768477036e-002
      9.0960589510197237e-003 -4.1178592555548388e-001
      -3.3650466245972321e-001 4.9772094777350845e-001
      -4.5749205426277212e-001 4.5918524899743740e-002
      -2.8184698053289331e-001 8.0293024154385495e-001
      -7.1617705990291403e-001 -5.5817219489089320e-001
      -8.4036280145046449e-001 -1.0006176563936735e-001
      8.5052485301818803e-002 1.6148993734583614e-001
      -2.6897384986919670e-001 1.1152321993216027e-001
      -2.2882517376866829e-001 -3.0383377170694426e-001
      -2.9054911921100196e-001 -1.4787452643530097e-001
      3.3901084028650432e+000 -1.2157222185839484e-001
      -6.0443659413804907e-001 1.6370561861761965e-001
      -6.2474334487572059e-001 -1.0068280448631308e+000
      -4.7437548158197856e-001 3.3458091242189197e-001
      -6.4288147022517617e-001 -1.0636122369311385e+000
      -5.5279737312924226e-001 1.0872289492698034e-001
      8.7346599319040957e-002 4.8090491504927152e-001
      -9.7083210726622071e-002 -4.3252210502667185e-002
      4.5134843114839116e+000 7.9826452967524197e-001
      -1.1622231013999371e+000 2.5540719708581300e-001
      -1.3402804798270653e+000 -3.7542754442514736e-001
      -4.6241601826463757e-001 -1.6240028306183948e-001
      -9.3551432311461943e-002 -6.7958708379792565e-001
      -6.7892546019951161e-001 7.4068597081297627e-001
      -7.6443521275524375e-003 1.6627694434726686e-001
      -3.4349951364961090e-001 4.9701138380230842e-001
      3.4997182636174231e+000 2.6027067818386257e-001
      -6.0666583625923998e-001 -1.0583475431326310e-001
      -4.0110720160094893e-001 1.3638945787328538e-001
      -6.9263177872322856e-001 -4.6814313230656524e-001
      -4.8251336085016627e-001 -1.3513285003333051e+000
      -1.9156822132879819e-001 9.6178088425731487e-002
      4.1243239144843805e-002 -1.4751360707541036e-001
      -1.7729381582860729e-001 4.8600421914740416e-001
      7.6011213499313230e+000 3.3514759180059772e-001
      -5.7065687571159551e-001 -9.8640352581063706e-001
      -3.3148067756167465e-001 -1.0480542914096751e+000
      -7.4892700312294858e-001 -9.5674917257692615e-001
      -3.4882559671587282e-001 -9.3422970398335048e-001
      5.3516892955359063e-001 8.0288008287987433e-002
      1.8122506010428793e-001 -5.6140432375582222e-002
      3.3128930234377719e-002 8.4172132325908325e-002
      6.9770583949034002e+000 1.3132955088465121e+000
      -1.0641324362891493e+000 -2.6456964034516955e-001
      9.8215452250076191e-002 -1.8056330247223766e+000
      -1.6185677185016683e+000 -8.2227299174362589e-001
      -7.0750255465224687e-001 -1.2608761639133017e+000
      5.5339300483178044e-001 -1.1838841650409165e-001
      -4.2022179236216976e-002 -9.3192430966650786e-001
      -2.5505049901430482e-001 1.5450958264026760e-001
      1.4045210091723024e+000 7.6085997922641890e-001
      -2.7281922296675665e-001 2.8689895236294224e-002
      1.0340352288681920e-001 -2.6194945186405749e-001
      -8.8771864354029151e-001 3.6078335310200847e-002
      -4.7085812493552974e-002 -1.3030240142909802e-001
      4.9224779374322325e-001 -6.5439924745748543e-002
      -1.6100708634204797e-001 -9.0008385281483361e-002
      -2.7415501357245925e-001 3.5001754169128546e-001
      -8.8412020520267565e-001 3.6578284265340799e-001
      1.3814500538560430e+000 -4.7571923117922787e-001
      -2.6464208055201083e-001 9.8974551788640050e-002
      -7.7763497298744877e-002 -6.4423555667216734e-002
      -1.6479426117313287e-001 -1.3816009536574184e-001
      -2.8248957496786370e-001 -1.2749270494106357e-001
      2.9942828052300730e-001 -5.4309042623394976e-001
      3.3571409566907864e-002 -1.0348278666817015e+000
      1.6567739596855338e+000 3.2074822939758030e-001
      7.9787379872116049e-001 4.4582779329181982e-001
      5.0036139946235947e-001 -1.4090844679886513e-001
      -5.7560700936553366e-001 3.6777490661144069e-001
      -6.7551443186663662e-001 4.8857425056711690e-001
      -1.8242927476978904e-001 3.7190516635609391e-002
      -2.0165050395289585e-001 -1.8561765778217504e-001
      -2.4513686851499067e-001 -3.2509552995326790e-001
      2.5841316233610141e+000 -4.6898109235661817e-001
      4.3642307563946042e-001 -1.3918303836089380e-001
      2.9106843663484916e-001 -1.0071787699327690e-001
      9.5686296825955169e-002 1.5126083733261106e-001
      -3.8638841944639907e-001 5.2297048305937521e-001
      -2.0542245297333295e-001 -3.5430752560572570e-001
      3.5137879452073412e-001 1.5740466205855913e-001
      5.0538466107637903e-001 -2.6310395924780028e-001
      1.9207179589270438e+000 -1.5839730706423241e-001
      4.2526923329752797e-001 -5.0585797865198356e-001
      6.9049330754810012e-001 -2.8230080584026419e-002
      -4.5688632607627605e-001 6.7568123406904901e-001
      -2.2344942942585017e-001 2.6861440028343037e-001
      -4.1567385509565991e-001 -8.7591457722779029e-002
      9.6082475452898719e-002 -3.5420443892580528e-001
      -5.0064787731477212e-001 1.9442837826560752e-001
      5.9412931823946611e+000 -4.5492035833949857e-001
      -3.4429087373692341e-001 -1.1926340854874130e-001
      3.5846265435836672e-001 -2.5692841441318998e-001
      -1.0071000032486941e+000 7.6710876497051717e-001
      -5.9393793579852994e-001 5.1358282557761614e-001
      2.9792678449295962e-001 -2.6858499013962878e-001
      -1.2820344580059159e-001 -7.7307041012681865e-001
      -7.1858582407901206e-001 5.5142445569822218e-001
      5.2291534358955527e+000 -4.6620316894998098e-001
      5.0681097323312185e-001 2.4861388639696683e-001
      3.6066626639709115e-001 -1.9104042880183109e-002
      -7.5288690441344852e-001 2.2308229284126804e-001
      -1.5014946751149505e-001 4.0347807308149963e-001
      -3.1591353232228989e-002 2.7702493770583042e-001
      2.6853926008278139e-001 4.2186302550095846e-002
      2.0689222772712756e-001 3.7342658973441030e-002
      4.4749084142437026e+000 -3.9774458823667230e-001
      -5.9437666549389923e-001 3.3230884487157095e-002
      5.5650454232997981e-001 1.1302347590933963e+000
      -1.0999216061105681e+000 7.6607751743341557e-002
      -1.1479671788334334e-001 -4.3329865237134176e-002
      -3.9210905936720897e-001 2.3130518877189021e-001
      -5.9572609633947081e-002 2.4799974548803543e-002
      4.3059849265084460e-001 2.9244566967836089e-001
      -5.5148324511633029e-001 -3.1944510401762924e-002
      -9.2736187543128956e-002 -4.9374247710551294e-001
      1.0418565815364075e-001 1.1089894706955620e-002
      -1.5161151182385932e-001 -3.2160971301534058e-001
      -2.4014468890496790e-001 5.0177988437649723e-001
      -1.2545122188398861e+000 3.4858372578840759e-003
      3.1314333040803999e-001 -6.8985100219590714e-002
      1.2185420191329703e-001 -3.2813739742479336e-001
      -5.7855048507993523e+000 1.3436973472052946e-001
      5.6679398689308325e-001 -3.3724605703691746e-001
      2.3018299187288341e-001 6.6389998447058807e-001
      -3.5792540507167508e-001 -3.1028079203754438e-001
      1.0079872204414010e-001 8.7020324775766844e-001
      -7.1806849631091141e-001 5.7741300043091326e-001
      -2.5978978430692256e-002 -7.0706839948890293e-002
      -8.6809948725699790e-002 -3.0929052355366166e-001
      -3.8181927733834105e+000 8.7377720621638411e-001
      2.6017574952876182e-001 -2.9822013627513383e-001
      3.6549686054246538e-001 9.4658217229720454e-001
      1.3637510581719361e-001 -2.2950409241770520e-001
      6.4332169361895930e-001 3.6983508272029025e-001
      -2.6588941876617722e-001 -1.0634432839545076e-001
      -3.2512661146395183e-001 -3.8277617823145171e-001
      -2.8581179997970052e-001 1.0971719713345167e-001
      -9.1535458494252231e-001 -5.1256192673817319e-003
      3.1093019055504323e-001 -5.7885379218457023e-001
      -1.9309019393455984e-001 9.5188592459452981e-001
      1.9636660162114702e-001 1.0286526391077423e-001
      5.2213325787201302e-002 4.2176770625189053e-001
      -2.9585843246568272e-001 -3.2346482065451945e-002
      2.0508896963684994e-001 -4.7581844605166471e-002
      2.3669907479368513e-001 2.7100746249201835e-001
      9.2798234086780129e-001 1.7133552663016563e-001
      9.8587604404962836e-002 3.7623215263064336e-001
      -4.6818040759202600e-001 4.3901826761222479e-001
      4.5202351596028673e-001 -8.2075340055841794e-001
      9.5840398218278033e-001 -2.7537535757841175e-001
      -7.3841929265371209e-001 -4.6699456100598086e-002
      -4.1559394559163942e-001 -3.6272189338384359e-001
      4.6952207906270543e-001 -2.4456684364746694e-002
      2.0495955660266194e+000 -1.2550944815097727e-002
      4.7731463975266986e-001 -4.6357362127088081e-001
      -3.0001151514469915e-001 4.1809507178583261e-001
      -2.2449531288471051e-002 -3.4291920205056774e-002
      3.8112496905347448e-001 -5.5869553769354319e-001
      3.0963423340432628e-001 2.8491444025244744e-001
      -1.7439474269471339e-001 5.3572808459630243e-002
      1.4026790042980694e-001 1.1441237934643571e-001
      4.8739307813342174e+000 2.4025322419367522e-002
      -5.9398282107539779e-001 -1.1590542547105709e-001
      1.8957269618629946e-001 -1.5629370170105119e+000
      2.1102685384192052e-001 2.5447857597782186e-001
      -1.4023685812259537e-001 -6.3390065159035902e-001
      1.0144852469250423e+000 -2.4795063337511511e-001
      -2.8838287760645714e-001 4.3039314448618993e-001
      -8.6464623401406399e-002 5.3468286828240508e-001
      7.4471160811049657e+000 -2.1504771443086221e-001
      -7.7908408405475660e-001 -3.0755156492723354e-002
      1.1028983060942077e+000 -2.1709413861291527e+000
      -9.2406566941344359e-001 -3.1122786523788915e-001
      -1.3883259988193559e+000 -1.5133249714084718e+000
      8.4198625007431660e-001 -3.6252047443860569e-001
      -2.5606531513677555e-001 3.0594646447786300e-001
      -7.9507985043501317e-001 8.0778650452438683e-001
      -1.0205567380702854e-001 3.4587719874243278e-001
      -3.0315022771709571e-001 -4.0878445010805120e-001
      2.5310532834642246e-001 -8.5731892307027990e-001
      6.1789816038617031e-002 1.9636245016528650e-001
      -3.7351103087307824e-001 -2.7604803198253347e-001
      8.0174473062465035e-001 -2.8774666518734521e-001
      -9.2754453752144597e-002 -8.6601727309485654e-001
      -6.8844633035468350e-001 -1.4037128261561968e-001
      1.1215764316851340e+000 3.1322774523992314e-001
      1.1384658528900345e-001 -4.0326126078243657e-001
      6.2380170949896840e-001 -6.9929424329497791e-001
      -2.1105011644832966e-001 4.3881114963781309e-001
      -1.6931231870957619e-001 1.0192968752770959e+000
      6.3093977944046276e-001 2.1796893904939207e-001
      -7.9115001176402222e-001 -8.4898190095878212e-001
      2.3047533470188683e-001 1.2646946689222149e-001
      2.2636498066539614e+000 7.6095209510338291e-001
      6.2436315203814741e-001 3.7568568649900735e-001
      -2.5386940219812593e-001 -2.1033954136568964e-001
      9.4271449722963696e-001 5.3594699667732737e-001
      -6.7163505986604011e-001 8.3045156806194387e-001
      9.3415721795877882e-001 2.8342730163320740e-001
      1.0455434520091196e-001 -2.7458238673264990e-001
      -3.3021986750689769e-001 5.4038024829113585e-001
      3.0274592695622422e+000 1.4514634806058586e+000
      1.8710577499679271e-001 -2.7679127009615445e-001
      9.4004714576227288e-001 3.4721376709584262e-001
      5.9671658947250827e-001 6.3743207773579780e-001
      -6.3889308338021478e-001 6.2839931580383201e-001
      6.5372297262774970e-001 5.3863662298479120e-001
      -5.1508320548547570e-001 -4.4697562442055394e-001
      -1.8309492779106801e-001 9.0862193643633393e-001
      1.8092908260521787e+000 6.5848580945603918e-002
      4.2850411020184032e-001 1.0587760463363399e-001
      4.6864366253577916e-001 2.0062218803624829e-001
      7.3755181780432844e-001 1.4183941718819790e-001
      -7.7973175976138798e-001 3.4294658907442999e-001
      1.0559644504250312e+000 3.7462494836634425e-001
      1.0594669859195757e-001 -4.4275571838368243e-002
      -2.3671259503492301e-001 3.0773823141823864e-002
      -3.2892393281160137e-001 2.9718663021898939e-001
      3.5360310473006362e-001 3.4318419369365427e-001
      9.0030307224818518e-001 7.5296583568124620e-001
      -6.8748459993439615e-001 9.9391922473889893e-001
      -1.0435317077140276e-001 2.9072813981924389e-001
      1.2499361615063145e-001 5.3439343362575187e-001
      6.7123444369761476e-002 4.1206256325113502e-002
      -1.7579760607244416e-001 4.7860583714217231e-001
      -7.9104536692850713e-001 8.0046387954526954e-001
      -1.4754695930680442e-001 -1.2213008687214315e-001
      -3.6019662292225002e-001 1.7785596066551077e+000
      -1.2690353396976586e+000 -1.4627972944268292e-001
      -6.5275883822650893e-001 -1.1428217122203779e-001
      -8.2622869891485740e-001 -5.2117370292459875e-001
      -1.8737428808048398e-001 -4.9565533780860743e-001
      -2.9215878689123759e-001 1.0041492729081848e-001
      -2.4205879914486519e+000 -2.0382872212315303e-001
      4.8678771238995566e-001 2.6101033417593505e-001
      1.9311280274491568e-001 7.5318344633061474e-001
      -3.2731191511542157e-001 -1.7167177228482117e-001
      8.3185644605558129e-001 -2.3511986915249936e-001
      -4.7584896107564806e-001 2.0361271541224563e-001
      1.5432902062623480e-001 -4.3239377871878946e-002
      8.6571464591715136e-002 2.1090142981640722e-001
      -5.7763410791656948e+000 3.3678527144737125e-001
      -3.3898795671939286e-001 6.2426018247181629e-002
      -7.5709696370715251e-001 2.8892520521947801e-001
      -2.9688167285335065e-001 -8.0108604480956214e-001
      1.5831680336630730e-001 -5.9874865651092024e-001
      -5.5142766789968511e-001 -3.6834950360874369e-001
      -5.7272013820975853e-002 8.0348619256676787e-002
      -3.3396864547555116e-001 -5.3884499948612621e-002
      -8.6685644966172593e+000 -2.0678354808804988e-001
      -1.4705377407562811e-001 -5.5094291442014751e-003
      -4.5178718146901392e-001 8.7183961298232904e-001
      -2.2318223320044153e-001 9.9638419147864171e-002
      1.0933430894118827e-001 1.9913321089487540e-001
      -1.2548946850320954e+000 -6.1018534652109671e-002
      5.4179526324227054e-002 1.3253354750954027e-001
      1.6927880233361114e-002 -2.5743873225126079e-001
      -5.0109493256771103e+000 3.2662890332662603e-001
      -3.3033235823371060e-001 -5.9965505122321183e-001
      -6.7468023033424185e-001 7.7905645576471316e-001
      6.4986079891891790e-001 -3.8326546915220105e-001
      2.5856578684284794e-002 5.7259726167346892e-001
      -9.5239368699381299e-001 2.7127350107948439e-001
      5.4524410200133600e-001 1.6715658977301856e-001
      3.3121409338989583e-001 -3.8333604360049872e-001
      -8.5439595209544972e-001 2.5589347503149940e-001
      8.6188756396033883e-001 -4.9312983270116038e-002
      -4.4443215021922267e-001 2.0752791572378659e-001
      -7.9576185349679890e-002 -3.4285787514918675e-002
      1.3535881140821268e-001 2.4502083272133998e-001
      6.0201712651296646e-001 4.8635797238597872e-001
      3.7681642439867874e-001 1.0549768841433138e-001
      4.1294812938661485e-001 -1.3716534138259937e-001
      5.3983382451341910e+000 -1.3929603966186682e-001
      8.5292923963283296e-001 -9.6522866113132189e-001
      1.0173875624622806e+000 -4.1941576149159887e-001
      -3.1556860391879998e-001 3.0548408498825780e-001
      -1.4215594696008690e-001 9.1248660500541434e-001
      8.6299928604930654e-001 8.3621629200406067e-001
      -6.4700097525587835e-002 -2.6973240592931234e-002
      -7.1257971848946791e-002 2.7189708842591392e-001
      6.1881090855348875e+000 -7.1147595884526527e-001
      4.1601461435335380e-001 -3.5701856377833602e-001
      1.0791565585536478e+000 -2.2817691530476172e-001
      -1.4237134435221349e-001 -1.7589834975682236e-001
      5.7134224979776466e-002 2.6655993297341951e-001
      1.2846319966034410e+000 1.5838945286904126e-002
      -3.2202543353414748e-001 -2.5381682888690993e-001
      -5.0499497222568512e-001 -3.1189647064079284e-001
      3.4497656640161471e+000 -7.6482942751830285e-001
      8.5898999275321264e-001 -2.2932003353998981e-001
      1.2100145925316919e+000 -2.6758491832031928e-001
      -2.4648689845084537e-001 2.3893866105749006e-002
      2.5033987629820365e-001 -3.8298107146325977e-001
      1.2884828153084218e+000 -6.0573671564087683e-001
      -3.6251021613137746e-001 -2.3526288759246006e-001
      1.3283752660990669e-001 -9.3440756638964520e-002
      3.1015483090435048e-001 9.9851633090514247e-001
      -2.2212835825026020e-001 2.8906823899548334e-001
      7.5863308199551260e-001 -1.8241651705932032e+000
      -1.6454667438041515e-001 1.8478266350263057e+000
      -1.1211116532919025e+000 -9.7914771387833222e-001
      1.5704861127318714e+000 6.1622712114807654e-001
      -8.2597074315800445e-001 -3.8976371236684076e-001
      -1.6534763338815843e+000 1.2161667648191083e+000
      -3.9574163889403735e+000 1.2436341440320764e-002
      4.2005329779976336e-001 3.6331737063257957e-001
      -1.9199925544438334e-001 -3.8177677478254213e-001
      1.3932500619763450e+000 1.8485983571588338e-001
      1.9464654542561424e-001 7.7688379307692024e-001
      9.4261355820098602e-001 -6.1306460220414671e-001
      -4.4002842814974646e-001 -1.2906928042045984e-001
      -8.0704576678802903e-002 -8.9590398561104082e-002
      -1.7949697443632162e+000 6.7880876695142844e-001
      -2.9798078360194480e-001 1.0843523493239419e-001
      -3.8008421998884469e-002 -7.3560651416878886e-001
      1.1401367042413721e+000 6.1548826578208482e-001
      -1.7236163185091521e-001 2.8525502069737255e-002
      1.0163829695547462e+000 9.3222850780795827e-002
      5.9712566966937573e-002 1.4731975164327432e-001
      -7.8357768606415842e-002 -3.9643108017208434e-001
      -9.2657303044212680e-001 7.0638348718076183e-001
      -8.4889518334687580e-002 7.7568057151998560e-001
      -3.6535251654470091e-001 4.8219117050653393e-001
      5.3675684787707079e-001 8.3087032599364019e-001
      2.1152677970422640e-001 6.7616562967752214e-001
      1.3601351598260845e+000 -2.7465874435424187e-001
      -1.6989217707549370e-001 -2.9816388064281174e-001
      -2.5986936064307525e-001 6.2045843263672140e-001
      -5.6027915246896198e-001 1.6048179586616235e-001
      -4.3238649862865497e-001 3.3674422018279665e-001
      -8.7726567638136729e-002 7.1994964717840038e-001
      -9.3809022611403570e-001 3.9065989988212307e-001
      2.2554647779235073e-002 -4.5981092591806266e-001
      6.1327298199880487e-001 9.8990587352576942e-001
      -1.5627882030131765e-001 -1.0153216792227097e-001
      -5.7713816313693178e-001 6.8485157243771766e-001
      3.1972863104588916e+000 3.3656231728532077e-001
      -2.9464100407660315e-001 2.0502805085117212e-001
      -5.1719845289409849e-001 1.1299317280252898e-001
      -2.6986890628281496e-001 1.9035574955693602e-001
      -3.0369043486148023e-001 1.6428768440080804e-001
      1.3940713511840301e+000 3.7147544333104944e-002
      -3.7703419085103551e-001 -8.1645580594366537e-002
      -2.3934615189233682e-001 4.5635407884474399e-001
      1.0860164600945085e-001 1.0730621573223764e+000
      -1.1624307580080828e-001 -4.2842396799441834e-001
      -6.6961214584623840e-001 1.0918456858032017e+000
      -8.2908058101021964e-001 -5.0977406751382826e-001
      3.3308494636791791e-001 -1.2824422326743257e-001
      7.0345784510573528e-001 -3.1619078557692021e-001
      -9.8203912645920627e-002 -9.1625900222018455e-002
      -6.2001968659947193e-001 1.5013610817127074e-001
      1.8306136743583196e-001 -2.0248161701710532e-001
      -4.5980891747498120e-001 1.4592213782734359e-001
      -3.4501323531408606e-001 1.0087750845908963e-001
      -3.0002939561182485e-001 9.3112809698576146e-002
      2.5622231244376115e-001 -4.9142607829699370e-001
      3.6196270424179063e-002 -1.0606953915618889e+000
      -3.8196946188147764e-002 -4.4777655044025344e-001
      -4.6556342653990579e-001 1.0885660429138186e-001
      1.6101379013970408e-003 -2.8071314036360268e-001
      -3.9288819011842424e-001 6.8897627140828965e-001
      -7.7379549138168113e-001 5.4411360905559009e-002
      -1.3905600800943169e-001 1.9916964156485407e-002
      1.7841592450553734e-001 -4.3953710726603917e-001
      -1.6035724385465011e-001 4.4093990275334233e-001
      8.3564831673598100e-002 -4.2777865523650577e-001
      -1.5918976732548251e-001 -4.5067559040626412e-002
      -5.8142842417496565e+000 -6.4210662052921075e-001
      -3.2806508409946483e-001 9.8739885138260552e-001
      -1.1390665340941175e+000 1.4794666270683832e+000
      -2.8371582995824912e-001 -3.8439278657355036e-001
      3.2825680114062811e-001 3.4496490051633516e-001
      -1.6085705016456668e+000 -1.7609049443866412e-001
      1.6063588418377908e-001 -3.5052474080770876e-002
      4.8332138971449938e-002 -1.8729574600041696e-001
      -5.8516064871435827e+000 6.4279508763437243e-001
      -4.6071548912506602e-002 4.3650903790875434e-001
      -1.6641411158703348e-001 9.6702736177439774e-001
      2.4436600085766877e-001 -5.4240823958024220e-001
      2.3328680539958063e-001 -6.0957190058157473e-001
      -1.6088214564616474e-001 -6.7341021565043943e-002
      -1.5827668636567707e-001 -6.9793176716627606e-003
      2.9895015487184712e-001 -1.9301465784655872e-001
      -2.1564404967509239e+000 -1.5017543614254483e-001
      3.0656002087112533e-001 -1.8036653467795241e-001
      -1.9401557706082734e-002 2.4698861528295185e-001
      -3.0994006123456730e-001 -5.8880698643783069e-001
      -1.6482574274519388e-001 -1.2270051447019618e-001
      -1.5865017082027974e-001 -3.2508434814248560e-001
      -4.1557678384708535e-001 -1.9495857503073956e-002
      -5.7023669484045347e-001 -8.7747677607528246e-002
      1.1044556905717591e-001 -4.4844074205625173e-001
      2.9508909934524119e-001 2.1039303843917229e-001
      1.0840833551168880e+000 1.5005158759235517e+000
      -5.3768574418236748e-001 -2.2267927785791874e-001
      6.1158470162638090e-001 5.1283135606038444e-001
      7.8447807422231869e-002 3.8010727902354197e-001
      -4.6082842403466329e-001 -8.1806649110111845e-002
      -1.2984102175079429e-001 3.6819017151963736e-002
      3.7364318832685464e+000 -4.3615976622926478e-001
      1.3168025165140856e-001 -3.0175225035921679e-002
      5.3611128423476573e-001 -1.2556447466758380e-001
      -6.7571330318783165e-002 -4.8913099811176759e-002
      1.7914493182984201e-001 -2.1375525165169837e-001
      1.1267166440513672e+000 -3.3856741806054087e-002
      -1.1994321435288555e-001 2.6962781070363462e-001
      -3.5169125683038577e-001 9.3353596202265451e-002
      2.8264688958651765e+000 1.5673142637730081e-001
      6.8358017408584082e-001 -5.4110253015934640e-001
      6.8518785193780896e-001 2.2693196188652978e-001
      -1.2648656906370223e-001 1.4033336295321575e-001
      4.6735207951670577e-001 -4.1504184386080062e-001
      1.2380519045980143e+000 7.5635140188650987e-002
      6.9174409693779096e-002 -2.5335521020207608e-001
      2.2083528756743695e-001 3.3177098628397556e-001
      9.2189627755848558e-001 1.1288042120207249e+000
      1.7261156706871666e-001 -6.1643483561386059e-001
      -3.0483544352613645e-001 -5.8896470301373449e-001
      1.2374657465622647e-001 2.7206362364959302e-001
      -4.0055080514052349e-001 1.0661005579884023e-001
      5.3625244797870164e-001 7.7143488967193341e-001
      6.3072128805626654e-002 1.2645203178832295e-001
      -6.7375448347800482e-001 -2.5100420561215414e-001
      1.4825147145610362e+000 -1.9901042227103646e-001
      -3.9918639951795371e-002 6.3342437919615058e-001
      -6.8312473375780458e-001 -9.8551256406315690e-001
      -2.2714431548212791e-001 2.9297107868239297e-001
      -5.9999509624784753e-001 -3.8888412474775658e-001
      4.1366053749544252e-001 2.2212828734071743e-001
      3.5186872571218120e-001 4.5186965265175000e-001
      -6.3648419205851015e-001 -8.9609855305582811e-002
      -4.4230108689411223e+000 -1.2278735430280323e+000
      -7.1542777081442105e-002 1.1918410919513647e+000
      -4.5710764396548359e-001 3.0349619091307778e-001
      4.6338957010304122e-001 4.3092827792752858e-001
      -1.8503739800315153e-001 -2.0455013979234238e-001
      3.6858117155866388e-001 -1.6222207927163451e-001
      2.1157889439241787e-001 -5.3138704234279847e-002
      -3.7041201108886412e-001 -3.2699030091478100e-002
      -4.8823082640396587e+000 -1.8566416002547386e+000
      -2.7474973862361415e-002 1.3187601525005379e+000
      -1.7169382097138250e+000 6.2510080615749075e-001
      1.1748882832916689e+000 1.6713546328621068e-001
      9.1615989460461844e-001 -7.2774394623837935e-001
      1.4946744906085832e+000 -1.0221766222613642e+000
      6.5048402274645123e-001 -2.2675985124412340e-001
      -9.0926852005500436e-001 -6.1504299319820366e-001
      -2.9477965585830583e+000 -1.0469758166983130e+000
      -2.4310754075592980e-001 9.1494845028078731e-001
      -1.5300755284032230e+000 5.5156793080691624e-001
      1.6622071987779438e-001 -1.7453133643889948e-001
      1.0512152822525933e+000 -2.6615102875827801e-001
      5.0110827277081493e-001 -6.1897769652340151e-001
      3.8585895315259128e-001 2.0331641642276774e-001
      -8.2810249300153294e-001 1.7093126751011051e-001
      1.1916414852538089e+000 -1.1249708348820269e+000
      -4.9060590497178541e-001 4.2566341832138010e-001
      -2.6810505417140423e-001 2.6020629661106859e-001
      -7.9773392587589509e-001 -3.9496582852101747e-001
      7.5290415155382628e-001 -2.8438488214071361e-001
      5.9929548655548037e-001 -1.1343743515970319e+000
      7.0941595641535168e-002 1.9892701785817135e-001
      -1.1312192588125358e+000 7.8594138548513082e-001
      3.3991284714139471e+000 -2.7487351003734717e-001
      -6.4907336288163309e-001 6.3289447516323283e-001
      -7.8568438718576605e-002 -4.3472114204134743e-001
      -2.9773617307900185e-001 3.0891872344369975e-001
      2.0227189598637030e-001 2.3388298584662756e-001
      2.8035189091231072e-001 -3.0975492062040927e-001
      -3.1640920998196126e-001 3.0448770899338434e-001
      -3.4795156207024414e-001 3.6706780278104795e-001
      9.2358001800242362e-001 -6.3491800052910796e-001
      -8.2410905295112469e-001 2.3895072164690434e-001
      -1.7762570187725005e-001 -1.3311519960915491e-001
      -1.8564725819264882e+000 2.8371817776425740e-001
      2.3809727589472160e-001 -2.5523567302907885e-001
      -5.0690203105778076e-001 -3.3595416842061465e-001
      -1.8495539188544724e-001 4.7098600992935152e-001
      -1.3843853158307444e+000 5.2476004867731629e-001
      2.0206899357964407e+000 -4.6870986805370707e-001
      -3.4806575312258453e-001 4.7059987674563458e-001
      2.8443565219862188e-001 -5.9471933520115017e-001
      -7.8760469583072379e-001 -9.1258241121533024e-002
      -2.2965545436480017e-001 2.3161410109185757e-001
      -5.3233264692451776e-001 -9.7230951280224034e-002
      -5.7789580475381033e-002 5.7761539483841606e-001
      -4.1796813596370141e-001 4.6788629294324473e-002
      2.6813953455581676e+000 2.0025548448297549e-002
      -5.8197278039196276e-001 4.6110857735219735e-001
      2.0444305013588421e-001 -1.0171837773266761e+000
      -4.3179929768088171e-001 5.1895901530875499e-001
      -3.7147778555474947e-001 1.2003358493540028e-001
      -6.1132649519457538e-001 9.6721902368495941e-002
      -2.9024832404188278e-001 4.8294924894032770e-001
      -8.8895874622826110e-001 5.9931218980218692e-001
      -2.5031578486080068e+000 -5.1151041172584111e-001
      6.4795883285011868e-001 2.2368896912193648e-001
      -3.2274466058351975e-001 8.4069235332436917e-002
      -7.6255082950703790e-001 8.6388445168229938e-002
      -6.7431210143452255e-002 -3.2375590818796922e-002
      2.6812347017352245e-001 9.7883889446001471e-001
      1.4866049774188095e-001 -4.2564359003940888e-001
      -2.8047901971824701e-001 -3.9254385248815332e-002
      -1.7239468370955837e+000 -1.2644816778185322e-001
      2.8048179260245769e-002 -3.0839638427566385e-001
      -2.8216985693111984e-001 6.1764017694920714e-001
      -7.2129647692442822e-001 -1.1764352664034444e-001
      4.0150751381644603e-002 -8.7671410043598283e-002
      9.1983079808472390e-001 -3.7519998993916620e-001
      8.4394471780117178e-002 -2.1163853619532200e-001
      -7.0232411250737425e-002 1.8355949898059973e-001
      -5.9055330304506337e-001 -2.4590607912388829e-001
      -3.8959247269954289e-001 -6.2296261592933722e-001
      5.8069160301427403e-001 5.8612269133952744e-001
      -1.1545893123933142e+000 -7.1987170140348256e-001
      6.4039486248339261e-001 -1.0565107336332036e+000
      3.3049020001470303e-001 -1.0751945777748066e-001
      -2.4397034318162944e-001 -3.3125259650641625e-001
      -3.1520435733709662e-001 5.0825677531086810e-001
      4.1901532832699342e+000 3.7317429538565910e-001
      -1.4662863740397777e-001 -1.1154164412458090e-001
      1.6537068350400452e-001 -9.3550809735787097e-002
      -1.7112376703132301e-001 1.1523902402164901e-001
      4.8051717089138707e-001 1.6204983910530146e-001
      -1.4795702362972235e-001 5.2100361421618679e-001
      1.8334721981101715e-002 -4.0392472863357426e-001
      -2.3690152200353948e-001 4.6969583861677644e-001
      4.5845736600203111e+000 2.6851797027236712e-001
      -2.3075554264111078e-001 3.4436316977042705e-002
      -6.1862549264945466e-001 7.4846656565389647e-001
      -4.4365985063639024e-001 -6.4919331802497759e-001
      5.7802153390744548e-001 -7.0788939776520454e-003
      -5.4872689577742251e-001 2.6740345303372692e-001
      -3.1682570531593990e-003 -2.0039939393800379e-001
      6.4149051152005684e-002 -3.9699836847659387e-001
      8.0443738085282934e-001 3.9662866886106479e-001
      -1.4061472165918382e-001 -4.7686118832496527e-001
      -5.8178277666692191e-001 1.1425692224321038e+000
      3.8696810522668373e-001 2.4308153091713411e-001
      1.9797728795411818e-001 -3.0050798450637556e-001
      -8.1008590221592414e-001 7.7311834311996674e-001
      -4.3377381654002581e-002 -2.3629144130397806e-001
      -1.0040525392667275e-002 -5.2915421784397820e-001
      -1.5825910652131334e+000 8.8426161237529399e-001
      -6.5774645157003750e-002 -3.5581729888132718e-001
      -1.0542739163529411e+000 4.4233244723716736e-001
      1.6875735356179933e-001 6.1975501061519578e-001
      -2.7477747700435001e-001 -3.0831117801392409e-002
      -8.1652985960521651e-001 7.7946463257420862e-001
      3.5907562367600454e-001 -2.2249785169983208e-001
      5.0120023414969006e-001 -8.2159983348318186e-002
      -5.4682038476933237e-001 6.0229636930907327e-001
      -1.0327498523483758e-001 -6.4445554079799017e-002
      -5.8671793220287066e-002 2.5817777462756286e-001
      -9.5004177506825702e-002 3.5533106418986160e-001
      -3.5019411227126218e-001 1.3576097065091808e-001
      2.5660149845970266e-002 3.3996457846523759e-001
      -2.4947002063683019e-001 5.9137836589894027e-003
      6.9694555878501444e-002 1.9392427398329873e-001
      -4.4193424348761958e+000 -1.1287282415645934e+000
      1.7300793206486037e-001 9.1386272630207654e-001
      -1.2167527002839433e+000 3.3818656938145530e-001
      7.1500453370245076e-002 -4.7059861485424917e-002
      3.0618263273642166e-001 -2.9885522487760252e-001
      1.1556188900538058e+000 -1.0476316750873783e-001
      2.5612775643578395e-001 1.6143791474019711e-001
      -9.5299022341998968e-002 3.8868245201435625e-001
      -2.2118561160007486e+000 -1.8059499107285983e+000
      -1.9610475085442880e-001 1.4874795551535642e+000
      -1.6338029234590858e+000 4.4414014171360472e-001
      5.5977412658899373e-001 3.6857002366390584e-001
      4.6132292757286186e-001 -1.9106641015320625e-001
      1.0185187408407386e+000 -1.6285362823383314e+000
      4.0519550359417017e-001 -1.0229796333945877e-001
      -1.2813150522910968e+000 -9.2340373866237224e-001
      -3.6255946160817276e-001 -2.3687919337249070e+000
      -5.3387243606588564e-001 1.4772170530878102e+000
      -1.3116789748673494e+000 1.8040303578621603e-001
      -4.5816819689679156e-001 -6.9917293110678191e-001
      2.9224048761512672e-001 -4.8953771842921301e-001
      3.0554418865712990e-001 -9.4131751558591992e-001
      -2.4387761549611817e-001 1.6209140901097058e-001
      -1.5362728578078799e+000 -5.9162019901381480e-001
      3.0557455500670905e-001 -1.8979758428267857e+000
      -4.1291564221418686e-001 1.1942896351276227e+000
      -1.2361599026215613e-001 1.3288143073287442e-001
      -1.4467252484022894e+000 2.2515226347818995e-001
      2.5901697667783941e-001 -7.9539424125802352e-002
      6.5063054663619613e-001 -1.0111332241606839e+000
      -2.0381571216913383e-001 3.1447672602343890e-001
      -1.1583107265032038e+000 1.7058225559424625e-001
      1.4373756116094898e+000 -4.6629224060974522e-001
      -1.4634698278230461e-002 5.1014671665997702e-001
      4.5957141765528738e-002 1.6123226572410937e-001
      -1.1675940408742287e+000 -7.7837832433098345e-002
      6.5412647698222109e-002 5.9643700101690934e-002
      4.3098755711235948e-001 3.5786203010267570e-001
      -1.0145696549076233e-001 -1.6284542506638786e-001
      3.9127582511824903e-002 4.4865556653347910e-001
      4.5726839289413468e-001 -1.8824990186414162e-001
      7.3839174329410132e-002 -4.5230429334109207e-001
      3.0498240231768309e-001 -2.0946337368624313e-001
      2.5096136816688847e-001 5.4775008820413022e-002
      -4.2182660768192193e-001 1.4294151074653172e-002
      3.4517749627239724e-001 4.2212399972327994e-002
      2.8449600300573852e-001 5.8841867292614335e-002
      -3.8340244551819286e-001 -2.1487454301688746e-001
      9.7369999510136040e-001 -1.5048035715733113e-001
      3.9323234485065839e-001 -1.9294849289444824e-001
      6.1559407858599968e-001 -3.8746330489691366e-001
      -5.9316617787433312e-001 4.4856587819586735e-001
      -2.1714875027133831e-001 9.4676654107186853e-001
      -5.7334631749464837e-001 4.1856167958145790e-001
      -8.5377805341739721e-001 4.7658141683011544e-002
      3.1047795680205714e-001 4.7784791545464783e-001
      1.6147747821404734e+000 -4.5667729146546504e-001
      4.8825359217312481e-001 -6.0582457498681808e-001
      7.4374956219873656e-001 -8.6117994423352262e-001
      -1.2389785399499447e+000 5.2367468506570924e-001
      2.1364748357776564e-001 -2.9015826323491578e-001
      7.7887483342490582e-001 9.3213318443168686e-002
      6.0026626090064183e-001 3.8330497602773450e-001
      -2.1813636356773947e-001 2.2590852588625024e-001
      -3.0099184627549906e+000 -1.3737433529513894e+000
      1.0294710320797319e-001 -9.1688860943714789e-001
      6.5968615825311050e-001 7.7010045482169567e-002
      -1.8388128579355803e-001 -8.2505390103242898e-002
      2.7114671450881633e-001 -4.3323020915535321e-001
      9.0235492752328827e-001 -3.2882043543242416e-002
      -3.3163081651541099e-001 -8.4803569470917189e-003
      -4.1453236022788725e-001 1.3366634442107522e-001
      -2.9482221501844084e+000 -2.1839301848532355e-001
      -1.7038315558751638e-001 -2.1774355373878460e-001
      1.7534793568195323e-001 -7.1831246250284664e-001
      -7.2090266019374849e-001 1.5681665037246672e-002
      3.5757570275740308e-001 2.5399978212877161e-001
      -3.2666608152672683e-001 -4.5128148855435141e-001
      7.1968303243378384e-002 8.1117425884011635e-002
      8.3904517829821931e-002 5.0949920171182071e-002
      -1.1348006501249808e-001 5.1116105382343169e-001
      3.9899013842066255e-001 1.0490270145968786e-001
      5.7012366030603656e-001 2.0281934088328141e-001
      -9.3474801462961676e-001 7.9937258415202703e-002
      -1.0836819569776668e-001 2.9817732285933953e-002
      7.1366540524726008e-001 2.1405545786461147e-001
      9.8981777685021227e-002 1.6223310092380641e-001
      -4.0227822822622289e-001 3.5440977925102463e-001
      2.1616105532430550e+000 5.9098486039839793e-001
      -2.3593888236269622e-001 1.3834066186662228e-001
      -3.8337063915361103e-001 1.4007784119589430e+000
      1.3673393255292476e-001 -3.7442062480943045e-001
      -3.4841646678841287e-003 -4.0773939395254227e-002
      -4.8571028700304009e-001 6.7069193882999006e-002
      1.0792409502712683e-002 -8.2941125117899778e-002
      -2.1982674745181455e-001 -5.0584981515006489e-001
      1.8093889820902547e+000 1.1717457825416644e+000
      -6.2463588336859277e-002 2.9304912384707732e-001
      -6.0721621070061493e-001 9.4686352191061463e-001
      5.0816744647481793e-001 2.7261388855851931e-001
      -2.4992911801773326e-001 -8.4337307259901162e-001
      2.0251838152081850e-001 9.4247361314160993e-001
      4.4100457467806126e-001 -4.6380255004886038e-002
      -3.8030073288196525e-001 5.4440697444092336e-002
      7.1775408165491883e-002 2.7850707722704915e-001
      -6.3516364622667143e-001 1.3253600530273513e-001
      -4.4550761782131065e-001 1.7582803812091712e+000
      5.6300905263429520e-002 -2.3176228924543182e-001
      1.8712000574305113e-001 -8.6101198640088161e-001
      -6.6385436999125957e-001 3.5956226737214708e-001
      2.7399045976964181e-001 1.4687940039703723e-001
      -1.2399663373362282e-001 1.1123488238691170e-001
      -1.3985597967815908e+000 2.4183894206019585e-001
      -6.6745004310985789e-001 -7.2673161770034800e-001
      -8.4631795614865946e-001 9.8481050577255314e-001
      5.1832427060160502e-001 -7.7185803409505005e-001
      -1.6043458284693274e-001 -9.2826508280301534e-001
      -9.3499683574930403e-001 -1.1721939507710817e-001
      3.6524699966566077e-001 1.8121086214782164e-001
      1.0802743044893566e-002 -9.6163767943505363e-001
      8.9664278459835905e-002 1.2023994206482029e+000
      -6.7159488669376695e-003 6.8238716287859302e-001
      -7.5533219167409116e-001 1.2444394658852087e+000
      8.0787005660069522e-001 1.7739732972809891e-001
      3.5198966878858783e-002 2.1481264180361948e-001
      -1.6592637231362767e-001 -2.0345253406234948e-001
      -5.4174298864788969e-003 -5.2819528571728447e-001
      5.3694409666973503e-002 -5.3249617481804366e-002
      -1.3352903101200093e+000 -8.5192678801247412e-001
      -2.0827766957312868e-001 5.5950163595349711e-001
      2.5192059595365891e-002 -1.0988553847985305e+000
      -4.4427972083490358e-001 -2.3208451198425314e-001
      2.7411245451251154e-001 -1.5679173924372811e-001
      2.5401161343918099e-001 -6.8174687796464972e-001
      -2.5069074955064569e-001 8.7855362519798627e-002
      -3.6134750449863284e-001 -7.5545884789269213e-002
      -3.5394985841618034e+000 -2.3869117933582542e+000
      -2.2475819815236156e-001 1.9520962071009322e+000
      -9.5394450108688444e-001 8.1043875157133705e-001
      -2.3981030536292428e-002 -2.3292965586868891e-001
      2.2694960077793894e-001 1.1662725119105485e-001
      1.3749006621816218e-001 -1.3151730722104409e+000
      4.7722613149588272e-001 4.0589902407564515e-001
      -1.0444415117649823e+000 -2.4999490603566873e-001
      -1.3846376258429360e-001 -1.0592951834550515e+000
      1.9585420320881416e-001 1.7180014290856551e+000
      -2.2493448529403916e-002 -1.3495664634579002e-001
      -4.0530442555330259e-001 7.8077180169414084e-001
      1.4016502025209363e-001 8.3163639213802237e-002
      3.2583186085518334e-001 -1.1685815469682599e+000
      6.7411601061434123e-001 3.9789560797273382e-001
      -7.7993309835658609e-001 -8.5087903388829531e-002
      -3.5530583945482799e+000 -4.4277320599390080e-001
      -2.0097653142995531e-001 1.7148278293045760e-001
      -4.2907980453736089e-001 4.2989421111749709e-001
      2.1073585694432917e-001 -1.2213073527299639e-001
      -2.3092377890660970e-001 -4.8923017758554327e-001
      3.6033358559205103e-001 -7.5195135273877123e-001
      3.0913272811462827e-001 1.0413798878965333e-001
      -1.5768214569532307e-001 -1.9019401228271510e-001
      -1.4652912619703165e-001 -2.8074614902322453e-001
      2.9636822719188194e-001 -1.6314019922823473e-002
      -5.2538883489623989e-001 2.1282742236444616e-001
      -5.7874733090765518e-001 -6.1820568491099487e-002
      2.7825023802848625e-001 -1.5498787489503560e-001
      -7.8571933331405927e-002 -1.1398925634408834e-001
      2.6995507624954274e-001 9.9237230934138380e-003
      -6.1605035782501461e-001 -1.6668040334696516e-001
      5.7115895941418753e+000 -7.7182085308031689e-001
      -1.4610794810436217e-001 5.1090825834895426e-001
      -4.4320364914332372e-001 -6.7586071954436033e-001
      -2.6028253587069444e-001 -3.7310391523560978e-002
      7.2916113547029449e-001 1.8963062724602345e-001
      4.0657739712974289e-001 -1.0456169715213448e-003
      2.6665559863891303e-001 -4.9991887222469944e-002
      7.4422323496680132e-001 4.0698025189126674e-001
      4.3509732750206309e+000 -6.0185018413576019e-001
      -1.3855553873854864e-001 9.5368692607992689e-002
      6.2145383917506325e-001 8.8456299465516683e-002
      -2.1140265293417584e-001 4.1912667176716288e-002
      5.1974443673257054e-001 -3.8368898150293584e-001
      5.5860735363505387e-001 1.0812838093601966e-001
      4.1238088161859510e-001 4.0788387513721616e-002
      7.3715938318364127e-001 -2.3947281350077224e-001
      3.3738898117700953e+000 -6.6054513831936501e-001
      3.2166323270800695e-001 6.4975481831608739e-001
      -1.0663373323571836e-001 -6.9347047879674417e-001
      -7.1059609288090875e-001 4.0824649837122023e-001
      3.7380419447228447e-001 -3.6486276005303638e-002
      9.3812088240380331e-001 3.2597753106240868e-001
      -1.8385260614605900e-001 7.8390102502666342e-002
      3.3654469451956881e-002 4.5616692429351353e-002
      -2.3611094897248521e+000 4.0720677107340508e-002
      6.4115758412633039e-001 2.8384935412254692e-001
      1.0966811760843634e-001 1.0031710486852206e-001
      -8.7889987950271009e-001 4.1260710567756492e-001
      -3.2299593170945751e-001 2.9985250695219184e-001
      -3.9302092642015735e-001 6.9966589910288945e-001
      -1.1647081657576816e-001 7.1099396986006008e-002
      -5.3541429919050686e-003 3.1003631308040097e-001
      1.1934493988953545e+000 4.6236082180323691e-002
      4.9207327181397115e-002 1.3070924310848647e-001
      -9.7109330664377469e-001 -2.5099120882349329e-001
      2.3367094219305934e-001 2.3558442479525965e-001
      4.1718402695888235e-001 2.6254048790437629e-001
      -5.3877866901976057e-001 9.6760411970628554e-002
      3.8562441404567438e-001 -5.0147969617834874e-002
      3.1289426637503903e-001 -5.7604267805230092e-001
      2.6780492082732952e+000 1.5522532741839756e-001
      2.3070034243016055e-002 2.9228723207875601e-001
      -3.7171441582620485e-001 2.9525107987415711e-001
      5.7209749160954704e-001 -5.7688173963876865e-001
      -5.1645255007196300e-002 -2.0616681820190089e-001
      -2.0480287339583636e-001 4.8545162339546749e-001
      4.3982003052557822e-001 1.5572062074284101e-001
      3.3210480747790205e-001 -6.8398064845850870e-002
      3.6869508942150708e+000 1.2033187897730067e+000
      -5.2325350670196680e-001 -7.4824593041934132e-002
      -3.8002817517598220e-001 5.6890040629631322e-001
      2.4041167855487988e-001 7.3247869626829987e-001
      -5.1232149264509497e-001 7.1114168480628417e-002
      -9.0804425357532514e-001 8.9141307740704490e-001
      1.8404606528206002e-001 -1.7249741106626953e-001
      -4.9859388076641670e-001 1.2560400066768276e-001
      1.9042030734569488e+000 6.9534982445241622e-001
      -5.7619967845588949e-001 2.2708795827125868e-002
      1.1273665360938722e-002 8.6945348829361313e-001
      9.1131778763193838e-002 3.3995438109124854e-001
      1.9815299924469693e-001 9.0187667248934067e-002
      2.9793257265629397e-003 2.2526367893097660e-001
      -1.0717601983327074e-002 -5.6975519926833258e-002
      3.0099088253001849e-001 3.5138400774504530e-001
      1.3363581707748395e-001 7.1941321325294083e-001
      -1.4412055801348583e-001 -2.8305848201854589e-001
      3.8495603212018492e-001 8.2798708478923089e-001
      4.0332692802280207e-001 4.6984835855225432e-001
      -9.2082089484462948e-001 -7.6674636962459339e-002
      1.1581487826676264e-001 8.1245234867653293e-001
      -2.8484765925662223e-002 9.8514677550936638e-002
      -1.9066386586397449e-002 -2.2185263349689918e-001
      1.9941052665581513e+000 4.1150650555144980e-001
      -5.0051591564686582e-001 -1.7197224156641081e-001
      6.6130095764535746e-001 3.6331711740957728e-002
      2.8844127265073533e-001 1.4675268189022797e-001
      -2.9187939757480397e-001 1.6763392590952136e-001
      -5.1900203119830624e-001 1.4365155137330214e+000
      -3.8889870195333270e-001 -2.3785247553023095e-001
      7.1368968777765926e-002 1.3407744671886637e-001
      -7.9328687416834831e-001 1.1396329788739819e+000
      3.0880892459375173e-002 1.4439976305370786e-001
      -2.5945511656590298e-001 1.6592313125541978e+000
      -3.3713056079616643e-001 -2.8693181621485780e-001
      6.5821109791830701e-001 -2.6346853396227388e-001
      -8.3806710381836713e-001 3.6866943691136561e-001
